{"learner":{"attributes":{"scikit_learn":"{\"_estimator_type\": \"classifier\"}"},"feature_names":[],"feature_types":[],"gradient_booster":{"model":{"cats":{"enc":[],"feature_segments":[],"sorted_idx":[]},"gbtree_model_param":{"num_parallel_tree":"1","num_trees":"100"},"iteration_indptr":[0,1,2,3,4,5,6,7,8,9,10,11,12,13,14,15,16,17,18,19,20,21,22,23,24,25,26,27,28,29,30,31,32,33,34,35,36,37,38,39,40,41,42,43,44,45,46,47,48,49,50,51,52,53,54,55,56,57,58,59,60,61,62,63,64,65,66,67,68,69,70,71,72,73,74,75,76,77,78,79,80,81,82,83,84,85,86,87,88,89,90,91,92,93,94,95,96,97,98,99,100],"tree_info":[0,0,0,0,0,0,0,0,0,0,0,0,0,0,0,0,0,0,0,0,0,0,0,0,0,0,0,0,0,0,0,0,0,0,0,0,0,0,0,0,0,0,0,0,0,0,0,0,0,0,0,0,0,0,0,0,0,0,0,0,0,0,0,0,0,0,0,0,0,0,0,0,0,0,0,0,0,0,0,0,0,0,0,0,0,0,0,0,0,0,0,0,0,0,0,0,0,0,0,0],"trees":[{"base_weights":[-1.5447538E-2,1.9007333E-1,-2.382559E-2,-1.8030463E-1,-1.6238471E-2,-9.587047E-1,-7.696472E-3,-1.4665945E-1,6.291405E-2,-5.048865E-3,1.8937422E-2],"categories":[],"categories_nodes":[],"categories_segments":[],"categories_sizes":[],"default_left":[0,0,0,0,0,0,0,0,0,0,0],"id":0,"left_children":[1,-1,3,-1,5,7,9,-1,-1,-1,-1],"loss_changes":[6.1673317E1,0E0,5.1579433E1,0E0,3.0648144E1,2.8498835E1,3.184181E1,0E0,0E0,0E0,0E0],"parents":[2147483647,0,0,2,2,4,4,5,5,6,6],"right_children":[2,-1,4,-1,6,8,10,-1,-1,-1,-1],"split_conditions":[-1.5343629E-1,1.9007333E-1,1.4478299E-1,-1.8030463E-1,-1.3246497E0,-8.393725E-1,4.568288E-1,-1.4665945E-1,6.291405E-2,-5.048865E-3,1.8937422E-2],"split_indices":[72,0,513,0,470,56,386,0,0,0,0],"split_type":[0,0,0,0,0,0,0,0,0,0,0],"sum_hessian":[3.8378296E3,1.5723696E1,3.822106E3,1.522453E1,3.8068813E3,3.319447E1,3.773687E3,2.5207829E1,7.986639E0,3.1010623E3,6.7262476E2],"tree_param":{"num_deleted":"0","num_feature":"768","num_nodes":"11","size_leaf_vector":"1"}},{"base_weights":[-1.6620655E-3,1.7212808E-1,-9.052945E-3,-1.2276732E0,1.2646177E-3,7.76261E-2,-1.7360085E-1,9.692858E-2,-8.0293275E-2,6.957751E-2,-1.1379377E-1,3.1129658E-2,3.7170134E-3,-1.0910857E-1,-6.7560724E-3],"categories":[],"categories_nodes":[],"categories_segments":[],"categories_sizes":[],"default_left":[0,0,0,0,0,0,0,0,0,0,0,0,0,0,0],"id":1,"left_children":[1,-1,3,5,7,9,-1,11,13,-1,-1,-1,-1,-1,-1],"loss_changes":[4.9055656E1,0E0,4.8227776E1,2.1502537E1,2.9690567E1,8.293182E0,0E0,2.2422632E1,2.636342E1,0E0,0E0,0E0,0E0,0E0,0E0],"parents":[2147483647,0,0,2,2,3,3,4,4,5,5,7,7,8,8],"right_children":[2,-1,4,6,8,10,-1,12,14,-1,-1,-1,-1,-1,-1],"split_conditions":[-1.5343629E-1,1.7212808E-1,7.1922225E-1,2.4060301E-1,-2.6667368E-1,8.394673E-2,-1.7360085E-1,2.1256673E-1,-1.3246497E0,6.957751E-2,-1.1379377E-1,3.1129658E-2,3.7170134E-3,-1.0910857E-1,-6.7560724E-3],"split_indices":[72,0,322,696,299,256,0,561,470,0,0,0,0,0,0],"split_type":[0,0,0,0,0,0,0,0,0,0,0,0,0,0,0],"sum_hessian":[3.8500938E3,1.5454643E1,3.8346392E3,3.1203188E1,3.803436E3,8.983283E0,2.2219904E1,1.750263E3,2.053173E3,6.2384596E0,2.7448237E0,3.8063254E2,1.3696304E3,2.4487701E1,2.0286853E3],"tree_param":{"num_deleted":"0","num_feature":"768","num_nodes":"15","size_leaf_vector":"1"}},{"base_weights":[1.016895E-2,1.5827518E0,3.5891966E-3,5.1746733E-2,1.6362743E-1,-2.8310043E-3,1.484667E0,-9.3206507E-1,9.587895E-3,1.8147024E0,-6.0520567E-2,2.2909887E-2,-1.3437705E-1,-1.1215688E-1,1.7441073E-3,1.9394337E-1,2.733314E-2],"categories":[],"categories_nodes":[],"categories_segments":[],"categories_sizes":[],"default_left":[0,0,0,0,0,0,0,0,0,0,0,0,0,0,0,0,0],"id":2,"left_children":[1,3,5,-1,-1,7,9,11,13,15,-1,-1,-1,-1,-1,-1,-1],"loss_changes":[3.961975E1,6.293106E-2,3.6276756E1,0E0,0E0,4.3851456E1,1.2455559E1,2.4265701E1,3.3331844E1,2.2519684E0,0E0,0E0,0E0,0E0,0E0,0E0,0E0],"parents":[2147483647,0,0,1,1,2,2,5,5,6,6,7,7,8,8,9,9],"right_children":[2,4,6,-1,-1,8,10,12,14,16,-1,-1,-1,-1,-1,-1,-1],"split_conditions":[-1.5343629E-1,1.8640998E-1,-6.4436354E-2,5.1746733E-2,1.6362743E-1,-3.1279668E-1,5.5632526E-1,-3.2432705E-1,-2.0264674E-2,5.5650983E-2,-6.0520567E-2,2.2909887E-2,-1.3437705E-1,-1.1215688E-1,1.7441073E-3,1.9394337E-1,2.733314E-2],"split_indices":[72,1,463,0,0,217,630,645,556,50,0,0,0,0,0,0,0],"split_type":[0,0,0,0,0,0,0,0,0,0,0,0,0,0,0,0,0],"sum_hessian":[3.8285776E3,1.4954082E1,3.8136235E3,1.2257444E0,1.3728337E1,3.7981572E3,1.54662285E1,4.9115005E1,3.7490422E3,1.3470601E1,1.9956275E0,1.2972162E1,3.614284E1,2.4870884E1,3.7241714E3,1.2223219E1,1.2473825E0],"tree_param":{"num_deleted":"0","num_feature":"768","num_nodes":"17","size_leaf_vector":"1"}},{"base_weights":[3.7419272E-3,1.5373921E-1,-2.287841E-3,6.261773E-3,-1.046373E0,-1.4706184E-1,1.1462897E-2,2.8039727E-1,-1.5962818E0,5.2333083E-2,-1.3510136E-4,1.4482881E-1,-1.4740263E-1,-1.7216194E-1,2.8127292E-2],"categories":[],"categories_nodes":[],"categories_segments":[],"categories_sizes":[],"default_left":[0,0,0,0,0,0,0,0,0,0,0,0,0,0,0],"id":3,"left_children":[1,-1,3,5,7,-1,9,11,13,-1,-1,-1,-1,-1,-1],"loss_changes":[3.557764E1,0E0,3.422015E1,2.9226791E1,2.3164772E1,0E0,2.486148E1,2.2571787E1,5.6996155E0,0E0,0E0,0E0,0E0,0E0,0E0],"parents":[2147483647,0,0,2,2,3,3,4,4,6,6,7,7,8,8],"right_children":[2,-1,4,6,8,-1,10,12,14,-1,-1,-1,-1,-1,-1],"split_conditions":[-1.5343629E-1,1.5373921E-1,2.0852967E-1,1.4478299E-1,-5.030511E-1,-1.4706184E-1,-1.7347248E-1,-2.4045743E-1,2.2140391E-1,5.2333083E-2,-1.3510136E-4,1.4482881E-1,-1.4740263E-1,-1.7216194E-1,2.8127292E-2],"split_indices":[72,0,359,513,153,0,414,533,4,0,0,0,0,0,0],"split_type":[0,0,0,0,0,0,0,0,0,0,0,0,0,0,0],"sum_hessian":[3.845868E3,1.4066773E1,3.8318013E3,3.8016648E3,3.0136374E1,1.23525715E1,3.7893123E3,8.974239E0,2.1162134E1,9.157053E1,3.6977417E3,5.4924803E0,3.4817595E0,1.99157E1,1.2464343E0],"tree_param":{"num_deleted":"0","num_feature":"768","num_nodes":"15","size_leaf_vector":"1"}},{"base_weights":[-3.8930916E-3,1.3840332E0,-9.341494E-3,3.719471E-2,1.441364E-1,-1.7108915E-3,-9.6132857E-1,5.704849E-1,-1.6169759E-2,2.0401993E-1,-1.4373602E0,1.2726444E-1,1.0852936E-2,-2.1701893E-3,1.2035086E-1,1.4359146E-1,-1.2687826E-1,5.2146334E-2,-1.6063498E-1],"categories":[],"categories_nodes":[],"categories_segments":[],"categories_sizes":[],"default_left":[0,0,0,0,0,0,0,0,0,0,0,0,0,0,0,0,0,0,0],"id":4,"left_children":[1,3,5,-1,-1,7,9,11,13,15,17,-1,-1,-1,-1,-1,-1,-1,-1],"loss_changes":[2.8993608E1,3.3379745E-1,2.7736301E1,0E0,0E0,3.1357307E1,1.7135923E1,3.0162256E1,2.4968998E1,1.9386541E1,8.014256E0,0E0,0E0,0E0,0E0,0E0,0E0,0E0,0E0],"parents":[2147483647,0,0,1,1,2,2,5,5,6,6,7,7,8,8,9,9,10,10],"right_children":[2,4,6,-1,-1,8,10,12,14,16,18,-1,-1,-1,-1,-1,-1,-1,-1],"split_conditions":[-1.5343629E-1,2.815015E-1,2.0852967E-1,3.719471E-2,1.441364E-1,-1.7347248E-1,-5.030511E-1,2.1645895E-1,3.9281186E-1,6.5786433E-3,2.642854E-2,1.2726444E-1,1.0852936E-2,-2.1701893E-3,1.2035086E-1,1.4359146E-1,-1.2687826E-1,5.2146334E-2,-1.6063498E-1],"split_indices":[72,8,359,0,0,414,153,445,433,530,520,0,0,0,0,0,0,0,0],"split_type":[0,0,0,0,0,0,0,0,0,0,0,0,0,0,0,0,0,0,0],"sum_hessian":[3.831419E3,1.3992306E1,3.8174265E3,1.1515304E0,1.28407755E1,3.7880652E3,2.936124E1,9.241401E1,3.6956514E3,8.681041E0,2.0680199E1,3.597623E1,5.6437782E1,3.6799421E3,1.5709026E1,4.74077E0,3.9402711E0,1.4767591E0,1.920344E1],"tree_param":{"num_deleted":"0","num_feature":"768","num_nodes":"19","size_leaf_vector":"1"}},{"base_weights":[-6.288035E-4,6.9309855E-3,-9.270266E-1,9.2799044E-1,3.7571986E-5,-1.1828055E0,8.961426E-1,-2.247249E-1,1.3866292E0,-1.0191089E0,6.8491343E-3,2.358385E-1,-1.4746536E0,1.2828268E-1,-8.643284E-3,-8.908796E-2,8.2723714E-2,1.5345366E-1,-1.2649829E-2,5.371449E-2,-1.5005907E-1,5.0389953E-2,-5.7916745E-4,1.2047916E-1,-1.0885581E-1,-1.4798388E-2,-1.5411301E-1],"categories":[],"categories_nodes":[],"categories_segments":[],"categories_sizes":[],"default_left":[0,0,0,0,0,0,0,0,0,0,0,0,0,0,0,0,0,0,0,0,0,0,0,0,0,0,0],"id":5,"left_children":[1,3,5,7,9,11,13,15,17,19,21,23,25,-1,-1,-1,-1,-1,-1,-1,-1,-1,-1,-1,-1,-1,-1],"loss_changes":[2.7010773E1,2.429019E1,1.561804E1,1.5336464E1,2.6374477E1,1.1861359E1,1.7863834E0,7.00856E0,4.7753487E0,1.9706741E1,2.3715685E1,8.5067E0,1.8181534E0,0E0,0E0,0E0,0E0,0E0,0E0,0E0,0E0,0E0,0E0,0E0,0E0,0E0,0E0],"parents":[2147483647,0,0,1,1,2,2,3,3,4,4,5,5,6,6,7,7,8,8,9,9,10,10,11,11,12,12],"right_children":[2,4,6,8,10,12,14,16,18,20,22,24,26,-1,-1,-1,-1,-1,-1,-1,-1,-1,-1,-1,-1,-1,-1],"split_conditions":[2.0852967E-1,-1.4630593E-1,3.623951E-1,2.7837884E-1,-2.0264674E-2,2.5630516E-1,-5.1838636E-1,1.585843E-1,-6.7215115E-1,-4.6370104E-1,-1.7347248E-1,-1.0906507E-1,1.4453065E-1,1.2828268E-1,-8.643284E-3,-8.908796E-2,8.2723714E-2,1.5345366E-1,-1.2649829E-2,5.371449E-2,-1.5005907E-1,5.0389953E-2,-5.7916745E-4,1.2047916E-1,-1.0885581E-1,-1.4798388E-2,-1.5411301E-1],"split_indices":[359,178,393,11,556,720,9,39,131,149,414,53,443,0,0,0,0,0,0,0,0,0,0,0,0,0,0],"split_type":[0,0,0,0,0,0,0,0,0,0,0,0,0,0,0,0,0,0,0,0,0,0,0,0,0,0,0],"sum_hessian":[3.8549062E3,3.8246877E3,3.0218515E1,2.741956E1,3.7972683E3,2.6808668E1,3.409846E0,7.9495792E0,1.946998E1,2.4224218E1,3.773044E3,4.6069007E0,2.2201767E1,2.2276125E0,1.1822337E0,4.961094E0,2.9884856E0,1.7723381E1,1.7465996E0,5.6964493E0,1.852777E1,9.2611115E1,3.6804329E3,2.7126124E0,1.8942883E0,1.2133375E0,2.098843E1],"tree_param":{"num_deleted":"0","num_feature":"768","num_nodes":"27","size_leaf_vector":"1"}},{"base_weights":[3.9071197E-4,1.11311905E-1,-6.983001E-2,3.1765556E-1,2.4568727E-2,1.181664E0,-7.950628E-2,6.7735606E-1,2.0077498E-1,2.654143E-1,-4.0759064E-2,1.4409642E-1,-6.0355525E-2,-8.873052E-2,1.2452512E0,7.876077E-2,-8.7312534E-2,5.1552396E-2,7.991447E-3,1.3548396E-2,1.0660501E-1,1.0005092E-3,-4.3481443E-2,-4.8314254E-3,-5.1003575E-2,-5.237779E-2,1.6888897E-1],"categories":[],"categories_nodes":[],"categories_segments":[],"categories_sizes":[],"default_left":[0,0,0,0,0,0,0,0,0,0,0,0,0,0,0,0,0,0,0,0,0,0,0,0,0,0,0],"id":6,"left_children":[1,3,5,7,9,11,13,15,17,19,21,-1,-1,23,25,-1,-1,-1,-1,-1,-1,-1,-1,-1,-1,-1,-1],"loss_changes":[2.9749908E1,2.6494167E1,2.8416904E1,1.828407E1,1.6429358E1,9.205618E0,2.8483131E1,1.8983791E1,1.2592289E1,2.3031311E1,1.6442087E1,0E0,0E0,3.9253204E1,1.353701E1,0E0,0E0,0E0,0E0,0E0,0E0,0E0,0E0,0E0,0E0,0E0,0E0],"parents":[2147483647,0,0,1,1,2,2,3,3,4,4,5,5,6,6,7,7,8,8,9,9,10,10,13,13,14,14],"right_children":[2,4,6,8,10,12,14,16,18,20,22,-1,-1,24,26,-1,-1,-1,-1,-1,-1,-1,-1,-1,-1,-1,-1],"split_conditions":[2.1980669E-1,-1.1910753E-1,-7.268971E-2,2.1413946E-1,-8.7638706E-2,6.065816E-2,3.9281186E-1,2.3092565E-1,2.0002285E-1,8.2011215E-2,8.074194E-1,1.4409642E-1,-6.0355525E-2,-2.5290814E-1,2.6280174E-1,7.876077E-2,-8.7312534E-2,5.1552396E-2,7.991447E-3,1.3548396E-2,1.0660501E-1,1.0005092E-3,-4.3481443E-2,-4.8314254E-3,-5.1003575E-2,-5.237779E-2,1.6888897E-1],"split_indices":[445,707,457,690,726,125,433,58,649,755,431,0,0,342,10,0,0,0,0,0,0,0,0,0,0,0,0],"split_type":[0,0,0,0,0,0,0,0,0,0,0,0,0,0,0,0,0,0,0,0,0,0,0,0,0,0,0],"sum_hessian":[3.817496E3,1.4796478E3,2.3378481E3,4.3713474E2,1.0425131E3,1.7007734E1,2.3208403E3,1.0603041E2,3.311043E2,2.2178607E2,8.20727E2,1.5019075E1,1.9886594E0,2.3057188E3,1.5121633E1,9.945069E1,6.579718E0,9.0959404E1,2.4014491E2,1.9182515E2,2.9960926E1,7.279265E2,9.2800476E1,2.1049075E3,2.0081137E2,2.9956596E0,1.2125973E1],"tree_param":{"num_deleted":"0","num_feature":"768","num_nodes":"27","size_leaf_vector":"1"}},{"base_weights":[6.1771665E-3,1.4862724E-1,-4.3513782E-2,1.7412257E-1,-6.4791614E-1,5.876044E-1,-5.9156626E-2,2.6511693E-1,-8.698359E-2,-1.196883E0,1.11023195E-1,-1.984042E-2,1.0720791E0,-4.461657E-2,-6.303634E-1,2.3350092E-2,1.0196149E-1,-1.6969353E-2,6.801096E-2,5.922062E-2,-1.4248969E-1,-8.512835E-2,6.961828E-2,5.259784E-2,-7.236629E-2,1.2462785E-1,-5.1116657E-2,6.8641104E-2,-5.3715347E-3,-1.2276193E-1,-3.687525E-3],"categories":[],"categories_nodes":[],"categories_segments":[],"categories_sizes":[],"default_left":[0,0,0,0,0,0,0,0,0,0,0,0,0,0,0,0,0,0,0,0,0,0,0,0,0,0,0,0,0,0,0],"id":7,"left_children":[1,3,5,7,9,11,13,15,17,19,21,23,25,27,29,-1,-1,-1,-1,-1,-1,-1,-1,-1,-1,-1,-1,-1,-1,-1,-1],"loss_changes":[2.7143085E1,2.025202E1,2.8102211E1,2.2872576E1,1.3035399E1,2.0284264E1,2.3020504E1,1.6780045E1,1.5931995E1,8.209148E0,8.427404E0,1.2493748E1,1.1206284E1,1.8044586E1,2.4345972E1,0E0,0E0,0E0,0E0,0E0,0E0,0E0,0E0,0E0,0E0,0E0,0E0,0E0,0E0,0E0,0E0],"parents":[2147483647,0,0,1,1,2,2,3,3,4,4,5,5,6,6,7,7,8,8,9,9,10,10,11,11,12,12,13,13,14,14],"right_children":[2,4,6,8,10,12,14,16,18,20,22,24,26,28,30,-1,-1,-1,-1,-1,-1,-1,-1,-1,-1,-1,-1,-1,-1,-1,-1],"split_conditions":[1.0445062E-1,6.072126E-2,-2.354014E-1,-6.2166862E-2,4.5512432E-1,-9.410817E-2,1.2686118E-1,7.865099E-1,-4.7849778E-2,-4.007173E-1,-1.9209382E-1,1.5830758E0,3.6650392E-1,-7.268971E-2,-2.6626158E-1,2.3350092E-2,1.0196149E-1,-1.6969353E-2,6.801096E-2,5.922062E-2,-1.4248969E-1,-8.512835E-2,6.961828E-2,5.259784E-2,-7.236629E-2,1.2462785E-1,-5.1116657E-2,6.8641104E-2,-5.3715347E-3,-1.2276193E-1,-3.687525E-3],"split_indices":[705,341,548,541,95,681,359,454,434,710,522,590,682,457,505,0,0,0,0,0,0,0,0,0,0,0,0,0,0,0,0],"split_type":[0,0,0,0,0,0,0,0,0,0,0,0,0,0,0,0,0,0,0,0,0,0,0,0,0,0,0,0,0,0,0],"sum_hessian":[3.8326794E3,9.906814E2,2.841998E3,9.607128E2,2.9968578E1,6.7853455E1,2.7741445E3,7.1242163E2,2.482912E2,1.7055037E1,1.2913541E1,3.0531475E1,3.732198E1,2.706333E3,6.781155E1,6.850262E2,2.7395445E1,2.2482841E2,2.3462786E1,1.7473534E0,1.5307683E1,4.711158E0,8.202383E0,1.7338242E1,1.31932335E1,3.3814327E1,3.507651E0,3.2355305E1,2.6739775E3,3.3265938E1,3.4545605E1],"tree_param":{"num_deleted":"0","num_feature":"768","num_nodes":"31","size_leaf_vector":"1"}},{"base_weights":[8.28143E-3,-4.947846E-3,4.2833388E-1,1.3175071E-3,-8.4798336E-1,8.187636E-1,5.3163106E-3,1.49617065E-2,-3.69383E-1,-1.0277629E0,1.1539387E-1,1.0496662E0,-1.622742E-1,-4.3322593E-1,7.314766E-1,4.7192867E-3,-1.5738653E-2,-1.4025256E-2,-9.91584E-2,9.127396E-2,-1.22452855E-1,1.1561368E-1,-4.5062702E-2,-9.274829E-2,6.856053E-2,8.157762E-2,-7.998443E-2,1.4247164E-1,-2.2482804E-3],"categories":[],"categories_nodes":[],"categories_segments":[],"categories_sizes":[],"default_left":[0,0,0,0,0,0,0,0,0,0,0,0,0,0,0,0,0,0,0,0,0,0,0,0,0,0,0,0,0],"id":8,"left_children":[1,3,5,7,9,11,13,15,17,19,-1,21,23,25,27,-1,-1,-1,-1,-1,-1,-1,-1,-1,-1,-1,-1,-1,-1],"loss_changes":[2.1316942E1,1.964748E1,1.933988E1,1.8684963E1,1.1062103E1,1.3966145E1,1.8539677E1,1.9799652E1,1.8557505E1,1.0933861E1,0E0,8.417229E0,8.72607E0,1.7276827E1,1.1488007E1,0E0,0E0,0E0,0E0,0E0,0E0,0E0,0E0,0E0,0E0,0E0,0E0,0E0,0E0],"parents":[2147483647,0,0,1,1,2,2,3,3,4,4,5,5,6,6,7,7,8,8,9,9,11,11,12,12,13,13,14,14],"right_children":[2,4,6,8,10,12,14,16,18,20,-1,22,24,26,28,-1,-1,-1,-1,-1,-1,-1,-1,-1,-1,-1,-1,-1,-1],"split_conditions":[-2.7259547E-2,2.0852967E-1,-2.7680904E-1,6.5469617E-1,-5.0102215E-2,-1.0135404E-1,1.1212372E-1,-7.002603E-3,2.7984822E-1,-2.8615773E-1,1.1539387E-1,1.0493526E-1,-2.8398615E-1,-1.8689004E-1,1.4755306E-1,4.7192867E-3,-1.5738653E-2,-1.4025256E-2,-9.91584E-2,9.127396E-2,-1.22452855E-1,1.1561368E-1,-4.5062702E-2,-9.274829E-2,6.856053E-2,8.157762E-2,-7.998443E-2,1.4247164E-1,-2.2482804E-3],"split_indices":[505,359,671,205,685,20,504,664,585,533,0,578,238,199,571,0,0,0,0,0,0,0,0,0,0,0,0,0,0],"split_type":[0,0,0,0,0,0,0,0,0,0,0,0,0,0,0,0,0,0,0,0,0,0,0,0,0,0,0,0,0],"sum_hessian":[3.8346782E3,3.718553E3,1.1612516E2,3.692112E3,2.6440958E1,5.9902145E1,5.622302E1,3.561968E3,1.3014404E2,2.4708649E1,1.7323103E0,4.8432777E1,1.1469365E1,3.530503E1,2.0917988E1,3.0013975E3,5.605706E2,9.60122E1,3.4131844E1,1.939784E0,2.2768864E1,4.5437622E1,2.9951577E0,5.9792366E0,5.4901285E0,7.7334466E0,2.7571583E1,1.0434332E1,1.0483656E1],"tree_param":{"num_deleted":"0","num_feature":"768","num_nodes":"29","size_leaf_vector":"1"}},{"base_weights":[5.211936E-6,-4.8790075E-2,1.1148491E-1,-2.0129181E-2,-3.3041567E-1,-1.4348295E-1,2.0288709E-1,-2.7213225E-2,1.3329983E0,5.5017244E-2,-4.955979E-1,5.7102877E-1,-2.2764067E-1,2.817214E-1,-1.05044514E-1,8.822548E-2,-3.6120655E-3,1.5859441E-1,-5.502469E-2,-8.049859E-3,1.12125374E-1,-3.2350995E-2,-1.10966384E-1,9.913819E-2,-4.1388877E-2,1.3233286E-1,-2.5669593E-2,2.07082E-2,6.9469675E-2,3.445532E-2,-3.1701602E-2],"categories":[],"categories_nodes":[],"categories_segments":[],"categories_sizes":[],"default_left":[0,0,0,0,0,0,0,0,0,0,0,0,0,0,0,0,0,0,0,0,0,0,0,0,0,0,0,0,0,0,0],"id":9,"left_children":[1,3,5,7,9,11,13,15,17,19,21,23,25,27,29,-1,-1,-1,-1,-1,-1,-1,-1,-1,-1,-1,-1,-1,-1,-1,-1],"loss_changes":[2.078663E1,2.1447054E1,2.7141293E1,2.3170841E1,1.5653873E1,1.8625652E1,2.082883E1,1.948953E1,6.8697605E0,1.08595705E1,1.7807514E1,1.3946941E1,1.2772343E1,2.0891441E1,1.6822214E1,0E0,0E0,0E0,0E0,0E0,0E0,0E0,0E0,0E0,0E0,0E0,0E0,0E0,0E0,0E0,0E0],"parents":[2147483647,0,0,1,1,2,2,3,3,4,4,5,5,6,6,7,7,8,8,9,9,10,10,11,11,12,12,13,13,14,14],"right_children":[2,4,6,8,10,12,14,16,18,20,22,24,26,28,30,-1,-1,-1,-1,-1,-1,-1,-1,-1,-1,-1,-1,-1,-1,-1,-1],"split_conditions":[6.630273E-1,1.0913841E-1,-3.157467E-1,2.6526484E-1,1.0047756E0,-1.9243883E-1,-1.5472385E-1,-1.4630593E-1,-9.628551E-2,1.9214172E0,2.8397048E0,5.101722E-1,-5.4681253E-1,2.199613E-1,-2.736563E-1,8.822548E-2,-3.6120655E-3,1.5859441E-1,-5.502469E-2,-8.049859E-3,1.12125374E-1,-3.2350995E-2,-1.10966384E-1,9.913819E-2,-4.1388877E-2,1.3233286E-1,-2.5669593E-2,2.07082E-2,6.9469675E-2,3.445532E-2,-3.1701602E-2],"split_indices":[706,670,390,193,325,2,63,178,281,179,259,513,390,430,390,0,0,0,0,0,0,0,0,0,0,0,0,0,0,0,0],"split_type":[0,0,0,0,0,0,0,0,0,0,0,0,0,0,0,0,0,0,0,0,0,0,0,0,0,0,0,0,0,0,0],"sum_hessian":[3.8192937E3,2.6569111E3,1.1623826E3,2.412467E3,2.4444409E2,3.0658603E2,8.557966E2,2.4008777E3,1.1589454E1,7.353228E1,1.7091182E2,3.1696102E1,2.7488992E2,6.814277E2,1.7436885E2,2.233542E1,2.3785422E3,1.0356322E1,1.2331312E0,6.6060646E1,7.471631E0,1.3469208E2,3.621974E1,2.221037E1,9.485732E0,4.2358346E0,2.7065408E2,5.783929E2,1.03034836E2,5.5668617E1,1.18700226E2],"tree_param":{"num_deleted":"0","num_feature":"768","num_nodes":"31","size_leaf_vector":"1"}},{"base_weights":[-5.426623E-3,-7.63842E-2,7.534776E-2,-8.5962E-1,-6.275509E-2,-1.079273E-1,1.3548596E-1,-9.442219E-2,-1.3515861E0,-6.879577E-2,1.3568312E0,4.9697284E-2,-3.3418566E-1,-1.2546761E-1,1.4683837E-1,-7.0834E-2,9.106507E-2,-1.5192935E-1,-6.0231413E-4,-7.6996745E-3,9.207624E-2,1.7829673E-1,-6.1985385E-2,6.734165E-2,-2.5863242E-3,1.4976426E-2,-4.9108278E-2,1.1138101E-1,1.3597867E-2],"categories":[],"categories_nodes":[],"categories_segments":[],"categories_sizes":[],"default_left":[0,0,0,0,0,0,0,0,0,0,0,0,0,0,0,0,0,0,0,0,0,0,0,0,0,0,0,0,0],"id":10,"left_children":[1,3,5,7,9,11,13,15,17,19,21,23,25,-1,27,-1,-1,-1,-1,-1,-1,-1,-1,-1,-1,-1,-1,-1,-1],"loss_changes":[2.180738E1,2.1567247E1,1.9626305E1,1.2883741E1,1.7174232E1,1.5714644E1,2.1334549E1,9.65417E0,4.72126E0,1.6174875E1,8.255153E0,1.2285072E1,1.3806641E1,0E0,1.3817234E1,0E0,0E0,0E0,0E0,0E0,0E0,0E0,0E0,0E0,0E0,0E0,0E0,0E0,0E0],"parents":[2147483647,0,0,1,1,2,2,3,3,4,4,5,5,6,6,7,7,8,8,9,9,10,10,11,11,12,12,14,14],"right_children":[2,4,6,8,10,12,14,16,18,20,22,24,26,-1,28,-1,-1,-1,-1,-1,-1,-1,-1,-1,-1,-1,-1,-1,-1],"split_conditions":[2.571053E-1,-1.3142915E0,-5.6951284E-2,4.258099E-1,1.6516605E-1,-1.7484498E-1,-1.6160436E-1,1.981774E-1,-5.9939486E-1,6.0457087E-1,-1.534938E-1,-6.506578E-2,1.758457E-1,-1.2546761E-1,-1.4630593E-1,-7.0834E-2,9.106507E-2,-1.5192935E-1,-6.0231413E-4,-7.6996745E-3,9.207624E-2,1.7829673E-1,-6.1985385E-2,6.734165E-2,-2.5863242E-3,1.4976426E-2,-4.9108278E-2,1.1138101E-1,1.3597867E-2],"split_indices":[90,470,7,317,762,154,315,72,263,160,141,599,38,0,178,0,0,0,0,0,0,0,0,0,0,0,0,0,0],"split_type":[0,0,0,0,0,0,0,0,0,0,0,0,0,0,0,0,0,0,0,0,0,0,0,0,0,0,0,0,0],"sum_hessian":[3.802789E3,2.0244404E3,1.7783485E3,3.3563198E1,1.9908772E3,4.391663E2,1.3391823E3,1.3600729E1,1.9962471E1,1.983389E3,7.4882627E0,2.5930197E2,1.7986433E2,9.96037E0,1.3292219E3,8.626644E0,4.974085E0,1.7635336E1,2.327134E0,1.9680013E3,1.5387629E1,6.240854E0,1.2474089E0,2.716386E1,2.3213812E2,4.404691E1,1.3581741E2,1.3634246E1,1.3155876E3],"tree_param":{"num_deleted":"0","num_feature":"768","num_nodes":"29","size_leaf_vector":"1"}},{"base_weights":[2.2537322E-3,1.2696757E-2,-5.449121E-1,-3.9229613E-2,1.2402858E-1,-2.3738066E-2,-1.1457924E0,-2.8091064E-1,-1.0739501E-2,1.0455397E-1,8.7222373E-1,1.388589E0,-2.5887233E-1,-1.2614455E0,1.0174986E-1,-4.234554E-2,5.4505654E-2,-1.1221142E-2,6.2291357E-3,-1.1133724E-2,1.6572585E-2,1.2455936E-1,-7.87358E-2,2.4412272E-2,1.6514766E-1,1.0882001E-1,-4.8425082E-2,-1.4033525E-1,3.512334E-2],"categories":[],"categories_nodes":[],"categories_segments":[],"categories_sizes":[],"default_left":[0,0,0,0,0,0,0,0,0,0,0,0,0,0,0,0,0,0,0,0,0,0,0,0,0,0,0,0,0],"id":11,"left_children":[1,3,5,7,9,11,13,15,17,19,21,23,25,27,-1,-1,-1,-1,-1,-1,-1,-1,-1,-1,-1,-1,-1,-1,-1],"loss_changes":[2.1670439E1,2.1517538E1,2.2215647E1,1.747524E1,1.7158127E1,1.3329789E1,9.532166E0,3.1742102E1,1.6842108E1,1.5271023E1,1.9505224E1,1.32127E0,1.0948222E1,7.7572174E0,0E0,0E0,0E0,0E0,0E0,0E0,0E0,0E0,0E0,0E0,0E0,0E0,0E0,0E0,0E0],"parents":[2147483647,0,0,1,1,2,2,3,3,4,4,5,5,6,6,7,7,8,8,9,9,10,10,11,11,12,12,13,13],"right_children":[2,4,6,8,10,12,14,16,18,20,22,24,26,28,-1,-1,-1,-1,-1,-1,-1,-1,-1,-1,-1,-1,-1,-1,-1],"split_conditions":[5.456343E-1,4.1454023E-1,3.019354E-1,1.6710201E-2,2.1506378E-1,-5.000562E-1,1.5155384E-2,4.2435765E-2,-9.1065115E-1,-1.7967404E-1,-1.2790682E-2,-8.6096156E-1,-2.5751498E-1,3.9205477E-1,1.0174986E-1,-4.234554E-2,5.4505654E-2,-1.1221142E-2,6.2291357E-3,-1.1133724E-2,1.6572585E-2,1.2455936E-1,-7.87358E-2,2.4412272E-2,1.6514766E-1,1.0882001E-1,-4.8425082E-2,-1.4033525E-1,3.512334E-2],"split_indices":[211,386,281,413,224,9,54,452,159,15,46,172,161,177,0,0,0,0,0,0,0,0,0,0,0,0,0,0,0],"split_type":[0,0,0,0,0,0,0,0,0,0,0,0,0,0,0,0,0,0,0,0,0,0,0,0,0,0,0,0,0],"sum_hessian":[3.7902617E3,3.7202354E3,7.002638E1,2.5374082E3,1.1828271E3,3.805706E1,3.1969318E1,2.6664072E2,2.2707676E3,1.1539314E3,2.8895693E1,4.731561E0,3.3325497E1,3.0742651E1,1.226669E0,2.2781236E2,3.8828358E1,9.5011053E2,1.320657E3,2.5459183E2,8.993396E2,2.3792377E1,5.103314E0,1.2440934E0,3.487468E0,4.2278132E0,2.9097685E1,2.8375559E1,2.3670921E0],"tree_param":{"num_deleted":"0","num_feature":"768","num_nodes":"29","size_leaf_vector":"1"}},{"base_weights":[-1.278486E-2,-8.4361345E-1,-6.825689E-3,-1.1725056E0,5.9128594E-1,3.4434348E-1,-2.5651634E-2,-1.3525538E0,6.1068136E-2,1.2211044E-1,-5.4126192E-2,2.2452736E-1,1.1349467E0,-6.301988E-3,-3.1603992E-1,-1.6604112E-2,-1.4288187E-1,-3.0019099E-2,4.0042758E-2,1.3651967E-1,-1.6574632E-2,-1.9656336E-3,4.1800216E-2,4.5841455E-2,-3.9461102E-2],"categories":[],"categories_nodes":[],"categories_segments":[],"categories_sizes":[],"default_left":[0,0,0,0,0,0,0,0,0,0,0,0,0,0,0,0,0,0,0,0,0,0,0,0,0],"id":12,"left_children":[1,3,5,7,9,11,13,15,-1,-1,-1,17,19,21,23,-1,-1,-1,-1,-1,-1,-1,-1,-1,-1],"loss_changes":[1.8897081E1,1.3520876E1,2.5076538E1,8.033144E0,4.7504463E0,1.8027527E1,2.0224762E1,1.6359253E0,0E0,0E0,0E0,1.570447E1,7.7592964E0,1.913712E1,1.3863615E1,0E0,0E0,0E0,0E0,0E0,0E0,0E0,0E0,0E0,0E0],"parents":[2147483647,0,0,1,1,2,2,3,3,4,4,5,5,6,6,7,7,11,11,12,12,13,13,14,14],"right_children":[2,4,6,8,10,12,14,16,-1,-1,-1,18,20,22,24,-1,-1,-1,-1,-1,-1,-1,-1,-1,-1],"split_conditions":[7.1922225E-1,2.9989774E-3,3.169277E-1,4.6262324E-2,-1.362794E-1,2.1811488E-1,1.515832E0,1.0936859E-2,6.1068136E-2,1.2211044E-1,-5.4126192E-2,1.0355429E-1,-8.856485E-2,1.3686188E-1,-1.3303158E-1,-1.6604112E-2,-1.4288187E-1,-3.0019099E-2,4.0042758E-2,1.3651967E-1,-1.6574632E-2,-1.9656336E-3,4.1800216E-2,4.5841455E-2,-3.9461102E-2],"split_indices":[322,13,26,187,672,320,542,25,0,0,0,592,99,762,738,0,0,0,0,0,0,0,0,0,0],"split_type":[0,0,0,0,0,0,0,0,0,0,0,0,0,0,0,0,0,0,0,0,0,0,0,0,0],"sum_hessian":[3.8169465E3,2.6181288E1,3.7907654E3,2.144806E1,4.733228E0,1.9200041E2,3.598765E3,1.9700407E1,1.7476523E0,2.9914615E0,1.7417668E0,1.6784714E2,2.4153282E1,3.3749043E3,2.2386066E2,1.3816792E0,1.8318727E1,4.1963E1,1.2588413E2,2.0478556E1,3.6747265E0,3.2728499E3,1.0205445E2,2.0174238E1,2.0368642E2],"tree_param":{"num_deleted":"0","num_feature":"768","num_nodes":"25","size_leaf_vector":"1"}},{"base_weights":[-7.972795E-3,1.505328E-1,-4.623324E-2,2.8051972E-1,1.5372144E-2,-6.0536887E-2,5.325331E-1,-7.7840203E-1,3.2148078E-1,8.273468E-2,-4.5968902E-1,-5.8677495E-1,-4.694947E-2,8.723515E-1,-2.121165E-1,-1.1018981E-1,1.0034492E-1,-4.0459238E-2,3.750456E-2,9.320704E-4,7.3334984E-2,-7.599637E-2,2.2356581E-2,-7.556082E-2,7.136807E-2,-1.01347044E-1,-4.084349E-3,-5.3375524E-2,1.0435777E-1,1.0567695E-1,-6.63125E-2],"categories":[],"categories_nodes":[],"categories_segments":[],"categories_sizes":[],"default_left":[0,0,0,0,0,0,0,0,0,0,0,0,0,0,0,0,0,0,0,0,0,0,0,0,0,0,0,0,0,0,0],"id":13,"left_children":[1,3,5,7,9,11,13,15,17,19,21,23,25,27,29,-1,-1,-1,-1,-1,-1,-1,-1,-1,-1,-1,-1,-1,-1,-1,-1],"loss_changes":[2.3232958E1,1.3083485E1,2.5578762E1,1.6718512E1,1.1758716E1,2.1511559E1,1.9043953E1,9.424563E0,1.4395679E1,1.5355054E1,9.533011E0,1.7167543E1,1.7295242E1,1.2924976E1,1.4525692E1,0E0,0E0,0E0,0E0,0E0,0E0,0E0,0E0,0E0,0E0,0E0,0E0,0E0,0E0,0E0,0E0],"parents":[2147483647,0,0,1,1,2,2,3,3,4,4,5,5,6,6,7,7,8,8,9,9,10,10,11,11,12,12,13,13,14,14],"right_children":[2,4,6,8,10,12,14,16,18,20,22,24,26,28,30,-1,-1,-1,-1,-1,-1,-1,-1,-1,-1,-1,-1,-1,-1,-1,-1],"split_conditions":[2.1256673E-1,-8.855997E-2,7.4756706E-1,-1.7551758E0,4.692168E-1,-9.594012E-1,3.304175E-1,1.0940414E-1,1.8879753E-1,2.1959534E0,2.0941468E-3,5.2013206E-1,-1.3246497E0,-1.1935589E0,1.6865681E-1,-1.1018981E-1,1.0034492E-1,-4.0459238E-2,3.750456E-2,9.320704E-4,7.3334984E-2,-7.599637E-2,2.2356581E-2,-7.556082E-2,7.136807E-2,-1.01347044E-1,-4.084349E-3,-5.3375524E-2,1.0435777E-1,1.0567695E-1,-6.63125E-2],"split_indices":[561,695,163,340,691,366,605,1,173,447,681,696,470,470,443,0,0,0,0,0,0,0,0,0,0,0,0,0,0,0,0],"split_type":[0,0,0,0,0,0,0,0,0,0,0,0,0,0,0,0,0,0,0,0,0,0,0,0,0,0,0,0,0,0,0],"sum_hessian":[3.8288318E3,7.4393195E2,3.0848997E3,3.7867578E2,3.652562E2,3.011372E3,7.352772E1,1.3431903E1,3.6524387E2,3.2061902E2,4.463717E1,7.473449E1,2.9366377E3,5.0370026E1,2.315769E1,1.1690995E1,1.7409075E0,2.4643734E1,3.4060016E2,2.8902087E2,3.1598152E1,3.0931305E1,1.3705863E1,6.651771E1,8.216779E0,1.7399977E1,2.9192375E3,5.238041E0,4.5131985E1,5.7204404E0,1.743725E1],"tree_param":{"num_deleted":"0","num_feature":"768","num_nodes":"31","size_leaf_vector":"1"}},{"base_weights":[-1.534635E-3,-1.6948618E-1,2.6177526E-2,-1.2000605E-1,-8.339928E-1,-1.5489198E-2,1.765465E-1,2.811212E-1,-2.0175035E-1,4.435589E-1,-1.1828344E0,3.6062518E-1,-3.4904968E-2,2.0889023E-1,-8.681242E-1,5.327495E-2,-4.337792E-2,-1.437701E-2,-8.191998E-2,1.3660328E-1,-5.243823E-2,-1.3479684E-1,1.150996E-1,7.049171E-2,-3.930967E-3,4.25915E-2,-4.843847E-3,1.10707186E-1,1.8241545E-2,8.532564E-2,-1.13870576E-1],"categories":[],"categories_nodes":[],"categories_segments":[],"categories_sizes":[],"default_left":[0,0,0,0,0,0,0,0,0,0,0,0,0,0,0,0,0,0,0,0,0,0,0,0,0,0,0,0,0,0,0],"id":14,"left_children":[1,3,5,7,9,11,13,15,17,19,21,23,25,27,29,-1,-1,-1,-1,-1,-1,-1,-1,-1,-1,-1,-1,-1,-1,-1,-1],"loss_changes":[1.7746973E1,1.765649E1,2.050952E1,1.6575798E1,1.7129E1,1.8734776E1,2.4179409E1,1.5648086E1,1.4885363E1,8.501146E0,1.2935688E1,1.7368843E1,1.5230523E1,1.6198996E1,1.0996544E1,0E0,0E0,0E0,0E0,0E0,0E0,0E0,0E0,0E0,0E0,0E0,0E0,0E0,0E0,0E0,0E0],"parents":[2147483647,0,0,1,1,2,2,3,3,4,4,5,5,6,6,7,7,8,8,9,9,10,10,11,11,12,12,13,13,14,14],"right_children":[2,4,6,8,10,12,14,16,18,20,22,24,26,28,30,-1,-1,-1,-1,-1,-1,-1,-1,-1,-1,-1,-1,-1,-1,-1,-1],"split_conditions":[-2.4129865E-1,-2.4225369E-1,-3.4784008E-2,-4.976005E-2,1.9483618E-2,-1.0063041E-1,-1.8550603E-1,-2.5285061E-2,4.100214E-1,-2.1845883E-1,9.7371295E-2,-1.1374526E-1,-1.1027665E0,-3.0211672E-1,2.4383846E-1,5.327495E-2,-4.337792E-2,-1.437701E-2,-8.191998E-2,1.3660328E-1,-5.243823E-2,-1.3479684E-1,1.150996E-1,7.049171E-2,-3.930967E-3,4.25915E-2,-4.843847E-3,1.10707186E-1,1.8241545E-2,8.532564E-2,-1.13870576E-1],"split_indices":[505,710,15,599,58,462,731,574,573,248,191,53,56,578,696,0,0,0,0,0,0,0,0,0,0,0,0,0,0,0,0],"split_type":[0,0,0,0,0,0,0,0,0,0,0,0,0,0,0,0,0,0,0,0,0,0,0,0,0,0,0,0,0,0,0],"sum_hessian":[3.8110737E3,5.390438E2,3.2720298E3,5.0278622E2,3.6257603E1,2.5627874E3,7.092425E2,8.470271E1,4.180835E2,7.718578E0,2.8539024E1,1.2493935E2,2.437848E3,6.887193E2,2.052319E1,6.2839478E1,2.186324E1,3.8332138E2,3.476212E1,3.7415261E0,3.9770515E0,2.7047646E1,1.4913784E0,6.673049E1,5.8208855E1,6.868344E1,2.3691646E3,1.855078E1,6.701686E2,2.4952886E0,1.80279E1],"tree_param":{"num_deleted":"0","num_feature":"768","num_nodes":"31","size_leaf_vector":"1"}},{"base_weights":[-3.3356566E-3,-1.3580339E-2,4.1251644E-1,-4.0625166E-2,1.5427127E-1,6.7512643E-1,-1.7194165E-1,-2.3838776E-1,-1.1591433E-2,2.7554587E-1,-1.4039223E-1,2.368213E-1,1.2361187E0,-8.162918E-1,6.438928E-1,-2.675492E-2,9.97104E-2,9.370671E-3,-8.099661E-3,-2.940479E-2,3.6317043E-2,-4.0109567E-2,1.3978052E-2,4.160389E-2,-1.2382044E-1,1.6084261E-1,-2.3464398E-2,-1.3516195E-1,3.303109E-2,1.04587816E-1,-8.035864E-2],"categories":[],"categories_nodes":[],"categories_segments":[],"categories_sizes":[],"default_left":[0,0,0,0,0,0,0,0,0,0,0,0,0,0,0,0,0,0,0,0,0,0,0,0,0,0,0,0,0,0,0],"id":15,"left_children":[1,3,5,7,9,11,13,15,17,19,21,23,25,27,29,-1,-1,-1,-1,-1,-1,-1,-1,-1,-1,-1,-1,-1,-1,-1,-1],"loss_changes":[1.6221043E1,1.6873543E1,1.4166766E1,1.8375786E1,1.8471306E1,1.528824E1,1.5863926E1,1.5028103E1,2.0413145E1,1.8361748E1,1.1089572E1,1.0245944E1,1.5466686E1,1.0723592E1,8.657611E0,0E0,0E0,0E0,0E0,0E0,0E0,0E0,0E0,0E0,0E0,0E0,0E0,0E0,0E0,0E0,0E0],"parents":[2147483647,0,0,1,1,2,2,3,3,4,4,5,5,6,6,7,7,8,8,9,9,10,10,11,11,12,12,13,13,14,14],"right_children":[2,4,6,8,10,12,14,16,18,20,22,24,26,28,30,-1,-1,-1,-1,-1,-1,-1,-1,-1,-1,-1,-1,-1,-1,-1,-1],"split_conditions":[7.4756706E-1,3.1315735E-1,-3.849508E-2,-3.5314357E-1,-1.791725E-1,-1.9094819E-1,-1.3568671E-1,-1.9581969E-1,1.3238664E-2,-2.0875104E-1,2.2830755E-2,1.4591901E-1,1.6848817E0,2.1521385E0,1.5760641E-1,-2.675492E-2,9.97104E-2,9.370671E-3,-8.099661E-3,-2.940479E-2,3.6317043E-2,-4.0109567E-2,1.3978052E-2,4.160389E-2,-1.2382044E-1,1.6084261E-1,-2.3464398E-2,-1.3516195E-1,3.303109E-2,1.04587816E-1,-8.035864E-2],"split_indices":[163,207,229,461,663,318,681,357,145,107,18,124,477,702,688,0,0,0,0,0,0,0,0,0,0,0,0,0,0,0,0],"split_type":[0,0,0,0,0,0,0,0,0,0,0,0,0,0,0,0,0,0,0,0,0,0,0,0,0,0,0,0,0,0,0],"sum_hessian":[3.805198E3,3.7146533E3,9.0544624E1,3.1998418E3,5.1481146E2,6.2366737E1,2.817789E1,4.0871033E2,2.7911313E3,3.647545E2,1.5005702E2,3.581023E1,2.6556505E1,1.574324E1,1.243465E1,4.000513E2,8.6589985E0,1.1087063E3,1.682425E3,4.831733E1,3.1643713E2,7.750565E1,7.255136E1,3.257078E1,3.2394488E0,2.1117294E1,5.439211E0,1.0610561E1,5.1326785E0,9.949096E0,2.485555E0],"tree_param":{"num_deleted":"0","num_feature":"768","num_nodes":"31","size_leaf_vector":"1"}},{"base_weights":[1.0619886E-2,-6.3944496E-2,6.2495828E-2,-3.3762422E-1,-2.7505096E-2,5.2640475E-2,8.710402E-1,-4.8363045E-1,1.7686E-1,1.2999984E-3,-3.8024604E-1,-8.990928E-1,6.58242E-2,1.0922157E0,-1.2568988E-1,9.936832E-2,-5.416406E-2,-9.1254376E-2,4.766942E-2,-4.939124E-3,2.228028E-2,-8.032203E-2,-3.0218211E-3,-1.2923713E-1,4.761482E-2,-1.09567575E-1,7.166331E-3,1.2856504E-1,-1.00672506E-1],"categories":[],"categories_nodes":[],"categories_segments":[],"categories_sizes":[],"default_left":[0,0,0,0,0,0,0,0,0,0,0,0,0,0,0,0,0,0,0,0,0,0,0,0,0,0,0,0,0],"id":16,"left_children":[1,3,5,7,9,11,13,15,17,19,21,23,25,27,-1,-1,-1,-1,-1,-1,-1,-1,-1,-1,-1,-1,-1,-1,-1],"loss_changes":[1.4648212E1,1.5486053E1,1.7748775E1,1.3793167E1,1.3943975E1,2.7755013E1,1.399909E1,1.274268E1,1.385049E1,1.4267346E1,1.5314806E1,1.6963535E1,1.4850454E1,1.1378164E1,0E0,0E0,0E0,0E0,0E0,0E0,0E0,0E0,0E0,0E0,0E0,0E0,0E0,0E0,0E0],"parents":[2147483647,0,0,1,1,2,2,3,3,4,4,5,5,6,6,7,7,8,8,9,9,10,10,11,11,12,12,13,13],"right_children":[2,4,6,8,10,12,14,16,18,20,22,24,26,28,-1,-1,-1,-1,-1,-1,-1,-1,-1,-1,-1,-1,-1,-1,-1],"split_conditions":[-5.8338583E-2,-2.912842E-1,5.825877E-1,8.532233E-2,6.9590324E-1,-7.316233E-1,-3.1645915E-1,-4.6282166E-1,1.4847012E-1,2.1493891E-1,-2.0360872E-3,-6.006657E-1,1.4478299E-1,2.140021E-1,-1.2568988E-1,9.936832E-2,-5.416406E-2,-9.1254376E-2,4.766942E-2,-4.939124E-3,2.228028E-2,-8.032203E-2,-3.0218211E-3,-1.2923713E-1,4.761482E-2,-1.09567575E-1,7.166331E-3,1.2856504E-1,-1.00672506E-1],"split_indices":[174,467,160,538,750,122,9,254,197,430,455,149,513,730,0,0,0,0,0,0,0,0,0,0,0,0,0,0,0],"split_type":[0,0,0,0,0,0,0,0,0,0,0,0,0,0,0,0,0,0,0,0,0,0,0,0,0,0,0,0,0],"sum_hessian":[3.7848965E3,1.552772E3,2.2321245E3,1.8148155E2,1.3712904E3,2.206297E3,2.5827456E1,1.4141045E2,4.0071106E1,1.2686849E3,1.0260547E2,2.9226675E1,2.1770703E3,2.383663E1,1.990825E0,4.733572E0,1.3667686E2,8.207361E0,3.1863745E1,1.0330476E3,2.3563744E2,4.5875137E1,5.6730328E1,2.2774187E1,6.452489E0,9.956238E0,2.167114E3,2.2180035E1,1.656596E0],"tree_param":{"num_deleted":"0","num_feature":"768","num_nodes":"29","size_leaf_vector":"1"}},{"base_weights":[-3.8395796E-3,7.7147976E-2,-5.6073334E-2,4.083378E-1,2.6710533E-2,8.932535E-2,-1.1409292E-1,8.4967077E-1,1.392937E-1,1.305629E-1,-9.1720365E-2,7.111397E-2,1.2645321E0,-4.925878E-1,-7.1724124E-2,-1.0705104E-2,1.04166485E-1,8.392602E-2,-5.663732E-3,2.1055134E-2,-1.686715E-2,-4.603211E-3,-5.8952518E-2,-1.1088139E-2,1.7892407E-2,-2.7965887E-2,1.5161686E-1,-6.198817E-2,3.0425847E-2,-1.7175008E-2,4.019392E-3],"categories":[],"categories_nodes":[],"categories_segments":[],"categories_sizes":[],"default_left":[0,0,0,0,0,0,0,0,0,0,0,0,0,0,0,0,0,0,0,0,0,0,0,0,0,0,0,0,0,0,0],"id":17,"left_children":[1,3,5,7,9,11,13,15,17,19,21,23,25,27,29,-1,-1,-1,-1,-1,-1,-1,-1,-1,-1,-1,-1,-1,-1,-1,-1],"loss_changes":[1.6030724E1,2.4808819E1,1.9443884E1,2.319022E1,1.5884506E1,1.3984562E1,2.6377357E1,1.3731812E1,1.6937246E1,1.6502808E1,1.36994E1,1.2746862E1,4.300276E0,1.6990051E1,1.6602041E1,0E0,0E0,0E0,0E0,0E0,0E0,0E0,0E0,0E0,0E0,0E0,0E0,0E0,0E0,0E0,0E0],"parents":[2147483647,0,0,1,1,2,2,3,3,4,4,5,5,6,6,7,7,8,8,9,9,10,10,11,11,12,12,13,13,14,14],"right_children":[2,4,6,8,10,12,14,16,18,20,22,24,26,28,30,-1,-1,-1,-1,-1,-1,-1,-1,-1,-1,-1,-1,-1,-1,-1,-1],"split_conditions":[2.2062695E-1,-9.6190706E-2,-1.884009E-1,-2.072426E-1,7.827915E-3,-3.0563025E-2,-8.342733E-1,-1.433081E-1,-3.4723595E-1,2.8933787E-1,-1.019867E-1,-3.4788126E-1,-1.3871767E-1,-4.9108386E-1,-8.239286E-2,-1.0705104E-2,1.04166485E-1,8.392602E-2,-5.663732E-3,2.1055134E-2,-1.686715E-2,-4.603211E-3,-5.8952518E-2,-1.1088139E-2,1.7892407E-2,-2.7965887E-2,1.5161686E-1,-6.198817E-2,3.0425847E-2,-1.7175008E-2,4.019392E-3],"split_indices":[445,414,21,589,448,434,234,50,652,573,391,303,192,131,305,0,0,0,0,0,0,0,0,0,0,0,0,0,0,0,0],"split_type":[0,0,0,0,0,0,0,0,0,0,0,0,0,0,0,0,0,0,0,0,0,0,0,0,0,0,0,0,0,0,0],"sum_hessian":[3.7874917E3,1.4848225E3,2.3026692E3,1.9530249E2,1.28952E3,6.5662054E2,1.6460487E3,7.315038E1,1.2215211E2,6.8699225E2,6.025278E2,6.4764496E2,8.975605E0,1.6463976E2,1.4814089E3,1.2300152E1,6.085023E1,2.5996342E1,9.615577E1,5.423207E2,1.4467154E2,5.5287744E2,4.9650322E1,2.4091885E2,4.067261E2,1.2420828E0,7.733522E0,1.4215326E2,2.2486486E1,7.8198285E2,6.9942615E2],"tree_param":{"num_deleted":"0","num_feature":"768","num_nodes":"31","size_leaf_vector":"1"}},{"base_weights":[-4.5821634E-3,-4.6217296E-2,8.9796945E-2,-4.036048E-1,-2.5726255E-2,4.7792774E-2,5.10545E-1,1.9247717E-1,-6.66894E-1,-1.1417986E-1,5.330365E-2,2.8583714E-1,-1.5054218E-2,2.0652139E-1,1.0668669E0,9.22397E-2,-1.31095145E-2,8.9223765E-2,-7.4867085E-2,-7.870426E-3,-4.359814E-2,8.543976E-3,-3.839129E-2,8.410333E-3,5.759272E-2,6.175355E-3,-3.119956E-2,6.0998064E-2,-2.525487E-2,1.2807404E-1,-9.2386656E-2],"categories":[],"categories_nodes":[],"categories_segments":[],"categories_sizes":[],"default_left":[0,0,0,0,0,0,0,0,0,0,0,0,0,0,0,0,0,0,0,0,0,0,0,0,0,0,0,0,0,0,0],"id":18,"left_children":[1,3,5,7,9,11,13,15,17,19,21,23,25,27,29,-1,-1,-1,-1,-1,-1,-1,-1,-1,-1,-1,-1,-1,-1,-1,-1],"loss_changes":[1.5037634E1,1.943546E1,2.0678917E1,2.2715897E1,1.7569223E1,1.595542E1,1.7746883E1,1.0718469E1,1.342477E1,1.3503512E1,1.868592E1,1.2987207E1,1.92795E1,1.3106422E1,1.7063793E1,0E0,0E0,0E0,0E0,0E0,0E0,0E0,0E0,0E0,0E0,0E0,0E0,0E0,0E0,0E0,0E0],"parents":[2147483647,0,0,1,1,2,2,3,3,4,4,5,5,6,6,7,7,8,8,9,9,10,10,11,11,12,12,13,13,14,14],"right_children":[2,4,6,8,10,12,14,16,18,20,22,24,26,28,30,-1,-1,-1,-1,-1,-1,-1,-1,-1,-1,-1,-1,-1,-1,-1,-1],"split_conditions":[6.630273E-1,-2.718979E-1,-7.0201285E-2,1.4809817E-4,-4.09321E-2,-2.7931315E-1,2.711733E-1,1.941808E-1,-3.4816304E-1,9.301941E-2,-7.517843E-2,-1.6374609E-1,3.8106162E-2,3.4591045E-2,2.3529144E-2,9.22397E-2,-1.31095145E-2,8.9223765E-2,-7.4867085E-2,-7.870426E-3,-4.359814E-2,8.543976E-3,-3.839129E-2,8.410333E-3,5.759272E-2,6.175355E-3,-3.119956E-2,6.0998064E-2,-2.525487E-2,1.2807404E-1,-9.2386656E-2],"split_indices":[706,505,45,86,114,428,677,207,373,295,235,45,474,670,222,0,0,0,0,0,0,0,0,0,0,0,0,0,0,0,0],"split_type":[0,0,0,0,0,0,0,0,0,0,0,0,0,0,0,0,0,0,0,0,0,0,0,0,0,0,0,0,0,0,0],"sum_hessian":[3.8248137E3,2.6543594E3,1.1704545E3,1.4292284E2,2.5114365E3,1.0652244E3,1.0523003E2,4.387028E1,9.905256E1,1.1848536E3,1.3265829E3,2.2175166E2,8.434728E2,6.893115E1,3.6298866E1,1.29060135E1,3.096427E1,4.442503E0,9.4610054E1,1.0683254E3,1.16528244E2,1.2365026E3,9.008029E1,1.3155551E2,9.019615E1,6.707631E2,1.7270961E2,3.6512753E1,3.24184E1,3.3099487E1,3.199379E0],"tree_param":{"num_deleted":"0","num_feature":"768","num_nodes":"31","size_leaf_vector":"1"}},{"base_weights":[-1.2667884E-2,-1.8230446E-2,6.6306645E-1,-1.1193079E-1,-1.4945624E-2,1.0151379E0,-6.394168E-1,3.700248E-1,-2.5215799E-2,-1.2789804E-1,1.2968409E0,-1.3858557E-1,7.048938E-2,6.0135484E-2,-3.5797246E-2,-1.2878919E-2,1.2425923E-3,-3.3672214E-2,1.4706749E-1],"categories":[],"categories_nodes":[],"categories_segments":[],"categories_sizes":[],"default_left":[0,0,0,0,0,0,0,0,0,0,0,0,0,0,0,0,0,0,0],"id":19,"left_children":[1,3,5,-1,7,9,11,13,15,-1,17,-1,-1,-1,-1,-1,-1,-1,-1],"loss_changes":[1.4298695E1,1.3621551E1,1.48918495E1,0E0,1.4877537E1,1.7709557E1,8.224384E0,1.6682285E1,1.4285532E1,0E0,6.9177094E0,0E0,0E0,0E0,0E0,0E0,0E0,0E0,0E0],"parents":[2147483647,0,0,1,1,2,2,4,4,5,5,6,6,7,7,8,8,10,10],"right_children":[2,4,6,-1,8,10,12,14,16,-1,18,-1,-1,-1,-1,-1,-1,-1,-1],"split_conditions":[-3.0563025E-2,1.4478299E-1,8.497164E-2,-1.1193079E-1,-6.742136E-2,-3.1093308E-1,6.690346E-2,6.340187E-1,-1.3672249E-1,-1.2789804E-1,-1.6772999E0,-1.3858557E-1,7.048938E-2,6.0135484E-2,-3.5797246E-2,-1.2878919E-2,1.2425923E-3,-3.3672214E-2,1.4706749E-1],"split_indices":[434,513,563,0,573,151,506,602,176,0,340,0,0,0,0,0,0,0,0],"split_type":[0,0,0,0,0,0,0,0,0,0,0,0,0,0,0,0,0,0,0],"sum_hessian":[3.7998286E3,3.7697693E3,3.0059252E1,1.0202264E1,3.7595671E3,2.3836636E1,6.222616E0,9.678069E1,3.6627864E3,2.219709E0,2.1616926E1,3.9811485E0,2.241468E0,7.3575226E1,2.320547E1,9.75692E2,2.6870945E3,1.9889755E0,1.962795E1],"tree_param":{"num_deleted":"0","num_feature":"768","num_nodes":"19","size_leaf_vector":"1"}},{"base_weights":[6.039788E-3,-3.6917801E-3,4.107062E-1,-4.3183587E-2,1.1222058E-1,8.5115474E-1,1.528806E-2,4.874723E-3,-1.6614795E-1,3.1315345E-1,1.4553073E-2,1.4640895E-1,1.2650448E0,-1.209602E0,2.9007065E-1,-3.792534E-2,2.834984E-3,-1.0613054E-1,-1.4064826E-2,-1.5613486E-2,4.4300996E-2,1.1675446E-2,-3.0164177E-2,-4.169243E-2,1.1623269E-1,-3.1907286E-2,1.4620785E-1,-1.6101468E-1,7.044369E-2,-1.982879E-2,7.533995E-2],"categories":[],"categories_nodes":[],"categories_segments":[],"categories_sizes":[],"default_left":[0,0,0,0,0,0,0,0,0,0,0,0,0,0,0,0,0,0,0,0,0,0,0,0,0,0,0,0,0,0,0],"id":20,"left_children":[1,3,5,7,9,11,13,15,17,19,21,23,25,27,29,-1,-1,-1,-1,-1,-1,-1,-1,-1,-1,-1,-1,-1,-1,-1,-1],"loss_changes":[1.4909484E1,1.69315E1,1.5471548E1,1.6303637E1,1.8441698E1,1.2077744E1,1.646215E1,1.7905983E1,1.7546938E1,1.8801918E1,2.0509035E1,1.0034021E1,8.692692E0,8.0067005E0,9.178414E0,0E0,0E0,0E0,0E0,0E0,0E0,0E0,0E0,0E0,0E0,0E0,0E0,0E0,0E0,0E0,0E0],"parents":[2147483647,0,0,1,1,2,2,3,3,4,4,5,5,6,6,7,7,8,8,9,9,10,10,11,11,12,12,13,13,14,14],"right_children":[2,4,6,8,10,12,14,16,18,20,22,24,26,28,30,-1,-1,-1,-1,-1,-1,-1,-1,-1,-1,-1,-1,-1,-1,-1,-1],"split_conditions":[1.6516605E-1,-3.1214213E-1,-2.59832E-1,-1.6868022E-1,-1.3416678E-1,-8.935153E-2,1.12198E-2,8.056794E-2,-7.316233E-1,-1.9970189E-1,4.35752E-1,-1.187451E0,3.8013365E-2,7.5175506E-1,2.385631E-1,-3.792534E-2,2.834984E-3,-1.0613054E-1,-1.4064826E-2,-1.5613486E-2,4.4300996E-2,1.1675446E-2,-3.0164177E-2,-4.169243E-2,1.1623269E-1,-3.1907286E-2,1.4620785E-1,-1.6101468E-1,7.044369E-2,-1.982879E-2,7.533995E-2],"split_indices":[762,711,113,435,574,2,697,111,122,45,343,380,504,591,403,0,0,0,0,0,0,0,0,0,0,0,0,0,0,0,0],"split_type":[0,0,0,0,0,0,0,0,0,0,0,0,0,0,0,0,0,0,0,0,0,0,0,0,0,0,0,0,0,0,0],"sum_hessian":[3.7846323E3,3.6967231E3,8.7909294E1,2.7577678E3,9.3895514E2,4.1041466E1,4.686783E1,1.9835105E3,7.742574E2,3.0639587E2,6.3255927E2,1.5686028E1,2.5355438E1,7.9641676E0,3.890366E1,1.1336359E2,1.870147E3,2.0319742E1,7.539377E2,6.636329E1,2.4003258E2,4.785211E2,1.5403818E2,1.0469969E1,5.2160583E0,2.7363403E0,2.2619097E1,6.717242E0,1.2469256E0,1.9218737E1,1.9684925E1],"tree_param":{"num_deleted":"0","num_feature":"768","num_nodes":"31","size_leaf_vector":"1"}},{"base_weights":[8.762844E-3,-4.7251485E-2,9.987487E-2,3.8006383E-1,-6.4650364E-2,-3.6981514E-1,1.2854336E-1,5.405294E-1,-6.266114E-1,8.6431247E-1,-7.1284905E-2,-1.0853015E0,-1.5883137E-1,1.1149974E-1,7.5361276E-1,7.5361244E-2,-3.289975E-2,-9.189724E-2,1.19725004E-1,1.2810953E-1,-1.19276205E-2,-2.8561933E-2,-3.883253E-3,-1.2663499E-1,6.549353E-2,-3.1349923E-2,8.859765E-2,7.5076886E-2,9.632818E-3,-9.8293476E-2,8.984256E-2],"categories":[],"categories_nodes":[],"categories_segments":[],"categories_sizes":[],"default_left":[0,0,0,0,0,0,0,0,0,0,0,0,0,0,0,0,0,0,0,0,0,0,0,0,0,0,0,0,0,0,0],"id":21,"left_children":[1,3,5,7,9,11,13,15,17,19,21,23,25,27,29,-1,-1,-1,-1,-1,-1,-1,-1,-1,-1,-1,-1,-1,-1,-1,-1],"loss_changes":[1.9301743E1,1.7438482E1,1.9435719E1,1.5164792E1,1.3937729E1,1.2370135E1,1.4380955E1,1.5014814E1,8.075796E0,6.7289495E0,1.5544485E1,6.7368507E0,1.0836145E1,1.275819E1,9.90242E0,0E0,0E0,0E0,0E0,0E0,0E0,0E0,0E0,0E0,0E0,0E0,0E0,0E0,0E0,0E0,0E0],"parents":[2147483647,0,0,1,1,2,2,3,3,4,4,5,5,6,6,7,7,8,8,9,9,10,10,11,11,12,12,13,13,14,14],"right_children":[2,4,6,8,10,12,14,16,18,20,22,24,26,28,30,-1,-1,-1,-1,-1,-1,-1,-1,-1,-1,-1,-1,-1,-1,-1,-1],"split_conditions":[-6.671148E-2,1.7325182E0,8.6920194E-2,-8.9729905E-2,9.323474E-2,-1.4850263E-1,3.5563302E-1,1.860062E-1,1.1174485E-1,3.114321E-1,2.3425093E-1,-2.736247E-1,-4.299877E-2,-2.2922154E-1,-3.396885E-1,7.5361244E-2,-3.289975E-2,-9.189724E-2,1.19725004E-1,1.2810953E-1,-1.19276205E-2,-2.8561933E-2,-3.883253E-3,-1.2663499E-1,6.549353E-2,-3.1349923E-2,8.859765E-2,7.5076886E-2,9.632818E-3,-9.8293476E-2,8.984256E-2],"split_indices":[681,702,111,166,415,759,649,41,462,739,233,183,373,548,127,0,0,0,0,0,0,0,0,0,0,0,0,0,0,0,0],"split_type":[0,0,0,0,0,0,0,0,0,0,0,0,0,0,0,0,0,0,0,0,0,0,0,0,0,0,0,0,0,0,0],"sum_hessian":[3.7800767E3,2.341214E3,1.4388625E3,9.078155E1,2.2504326E3,8.208722E1,1.3567753E3,7.869974E1,1.2081803E1,1.5041618E1,2.2353909E3,1.77499E1,6.433732E1,1.3219094E3,3.48658E1,6.3316853E1,1.5382887E1,1.0840271E1,1.2415326E0,1.0352439E1,4.68918E0,2.9292722E2,1.9424637E3,1.6323927E1,1.4259734E0,5.6650955E1,7.686364E0,2.9521124E1,1.2923883E3,2.2382164E0,3.2627583E1],"tree_param":{"num_deleted":"0","num_feature":"768","num_nodes":"31","size_leaf_vector":"1"}},{"base_weights":[7.8338484E-4,-8.255519E-3,3.7514907E-1,-1.846943E-2,3.4564134E-1,6.6522604E-1,-2.4117805E-1,6.0339678E-2,-6.720179E-2,-1.395147E-1,4.1527548E-1,-1.6846278E-1,9.319505E-1,-1.07882E0,1.2829854E-1,1.8340364E-2,-7.270427E-3,-1.0230674E-2,1.5658874E-2,5.041603E-2,-8.001259E-2,5.3436764E-2,-1.1321231E-1,1.1912179E-1,2.988572E-3,-1.4439087E-1,4.648492E-2,-5.5850137E-2,8.2206234E-2],"categories":[],"categories_nodes":[],"categories_segments":[],"categories_sizes":[],"default_left":[0,0,0,0,0,0,0,0,0,0,0,0,0,0,0,0,0,0,0,0,0,0,0,0,0,0,0,0,0],"id":22,"left_children":[1,3,5,7,9,11,13,15,17,-1,19,21,23,25,27,-1,-1,-1,-1,-1,-1,-1,-1,-1,-1,-1,-1,-1,-1],"loss_changes":[1.2776344E1,1.3332768E1,1.6074373E1,1.37696705E1,1.3121842E1,1.367506E1,9.18192E0,2.2444965E1,1.7419231E1,0E0,1.1234657E1,1.1158542E1,1.0771835E1,5.7716875E0,1.05464E1,0E0,0E0,0E0,0E0,0E0,0E0,0E0,0E0,0E0,0E0,0E0,0E0,0E0,0E0],"parents":[2147483647,0,0,1,1,2,2,3,3,4,4,5,5,6,6,7,7,8,8,10,10,11,11,12,12,13,13,14,14],"right_children":[2,4,6,8,10,12,14,16,18,-1,20,22,24,26,28,-1,-1,-1,-1,-1,-1,-1,-1,-1,-1,-1,-1,-1,-1],"split_conditions":[7.4756706E-1,3.6016637E-1,-9.870265E-2,2.1801543E-1,-4.8581892E-1,-5.389444E-3,-1.9148774E-1,5.609781E-1,3.313436E-2,-1.395147E-1,5.7919413E-2,4.1369545E-1,-1.936131E-1,-2.6939917E-1,4.993404E-1,1.8340364E-2,-7.270427E-3,-1.0230674E-2,1.5658874E-2,5.041603E-2,-8.001259E-2,5.3436764E-2,-1.1321231E-1,1.1912179E-1,2.988572E-3,-1.4439087E-1,4.648492E-2,-5.5850137E-2,8.2206234E-2],"split_indices":[163,739,20,445,558,346,555,734,114,0,236,403,218,136,471,0,0,0,0,0,0,0,0,0,0,0,0,0,0],"split_type":[0,0,0,0,0,0,0,0,0,0,0,0,0,0,0,0,0,0,0,0,0,0,0,0,0,0,0,0,0],"sum_hessian":[3.7737615E3,3.6857485E3,8.8012924E1,3.5832783E3,1.0247014E2,5.9792152E1,2.822077E1,1.369045E3,2.2142334E3,3.2091446E0,9.9261E1,1.4582061E1,4.521009E1,8.0502205E0,2.017055E1,7.110003E2,6.5804474E2,1.9144635E3,2.9976984E2,9.304185E1,6.2191515E0,8.689785E0,5.892276E0,3.4867954E1,1.0342136E1,6.5627174E0,1.4875027E0,1.0234123E1,9.936425E0],"tree_param":{"num_deleted":"0","num_feature":"768","num_nodes":"29","size_leaf_vector":"1"}},{"base_weights":[1.6739592E-2,-6.93757E-1,2.2069791E-2,9.6448295E-2,-8.5461444E-1,2.5121608E-1,4.418933E-3,-1.009438E0,8.477252E-2,3.5949805E-1,-2.3871289E-1,-3.4638178E-1,1.7040567E-2,-1.3113107E-1,-8.704942E-4,2.170084E-2,1.1033314E-1,-1.05167404E-1,9.954703E-3,1.1638026E-2,-5.716923E-2,-1.8446343E-3,1.42717725E-2],"categories":[],"categories_nodes":[],"categories_segments":[],"categories_sizes":[],"default_left":[0,0,0,0,0,0,0,0,0,0,0,0,0,0,0,0,0,0,0,0,0,0,0],"id":23,"left_children":[1,3,5,-1,7,9,11,13,-1,15,17,19,21,-1,-1,-1,-1,-1,-1,-1,-1,-1,-1],"loss_changes":[1.4395636E1,8.3744955E0,1.5246705E1,0E0,7.7960606E0,1.4388418E1,1.5508482E1,7.4182873E0,0E0,2.320543E1,1.3689805E1,1.2750014E1,1.5079939E1,0E0,0E0,0E0,0E0,0E0,0E0,0E0,0E0,0E0,0E0],"parents":[2147483647,0,0,1,1,2,2,4,4,5,5,6,6,7,7,9,9,10,10,11,11,12,12],"right_children":[2,4,6,-1,8,10,12,14,-1,16,18,20,22,-1,-1,-1,-1,-1,-1,-1,-1,-1,-1],"split_conditions":[1.0469161E0,3.594409E-1,1.1832691E0,9.6448295E-2,3.4381524E-1,1.5150803E-1,2.9005715E-1,-6.0428835E-2,8.477252E-2,1.1305252E-1,4.965538E-1,-8.572172E-2,-3.0636567E-1,-1.3113107E-1,-8.704942E-4,2.170084E-2,1.1033314E-1,-1.05167404E-1,9.954703E-3,1.1638026E-2,-5.716923E-2,-1.8446343E-3,1.42717725E-2],"split_indices":[542,486,542,0,443,741,80,335,0,654,734,511,711,0,0,0,0,0,0,0,0,0,0],"split_type":[0,0,0,0,0,0,0,0,0,0,0,0,0,0,0,0,0,0,0,0,0,0,0],"sum_hessian":[3.796198E3,2.7305578E1,3.7688926E3,1.9727801E0,2.5332798E1,2.6860367E2,3.5002888E3,2.359401E1,1.7387886E0,2.2020184E2,4.8401825E1,1.2064642E2,3.3796423E3,1.7887783E1,5.706225E0,1.858852E2,3.4316658E1,1.3602065E1,3.4799763E1,3.9664185E1,8.098224E1,2.6361401E3,7.4350226E2],"tree_param":{"num_deleted":"0","num_feature":"768","num_nodes":"23","size_leaf_vector":"1"}},{"base_weights":[1.1954326E-2,-2.5201118E-1,2.9392859E-2,3.2163632E-1,-3.9876175E-1,3.469308E-3,2.0103191E-1,-1.1869612E-1,1.2252817E0,-9.218036E-1,-1.4066185E-1,-7.651958E-2,7.018403E-2,2.5714868E-1,-4.481024E-1,6.629219E-2,-5.386552E-2,-2.068067E-2,1.4402309E-1,-1.1515037E-1,5.741752E-2,-2.6529038E-2,7.64112E-2,-2.1604123E-2,3.2293762E-4,2.558284E-2,2.7409426E-3,3.3042606E-2,-2.770623E-2,5.8383614E-2,-8.395697E-2],"categories":[],"categories_nodes":[],"categories_segments":[],"categories_sizes":[],"default_left":[0,0,0,0,0,0,0,0,0,0,0,0,0,0,0,0,0,0,0,0,0,0,0,0,0,0,0,0,0,0,0],"id":24,"left_children":[1,3,5,7,9,11,13,15,17,19,21,23,25,27,29,-1,-1,-1,-1,-1,-1,-1,-1,-1,-1,-1,-1,-1,-1,-1,-1],"loss_changes":[1.7452263E1,1.9907425E1,1.58207855E1,1.9410168E1,2.5187498E1,1.6496191E1,1.7110859E1,1.1341763E1,5.2079372E0,2.189222E1,1.4495502E1,1.5642481E1,1.3376865E1,1.692703E1,1.5634601E1,0E0,0E0,0E0,0E0,0E0,0E0,0E0,0E0,0E0,0E0,0E0,0E0,0E0,0E0,0E0,0E0],"parents":[2147483647,0,0,1,1,2,2,3,3,4,4,5,5,6,6,7,7,8,8,9,9,10,10,11,11,12,12,13,13,14,14],"right_children":[2,4,6,8,10,12,14,16,18,20,22,24,26,28,30,-1,-1,-1,-1,-1,-1,-1,-1,-1,-1,-1,-1,-1,-1,-1,-1],"split_conditions":[-4.4836578E-1,-3.166955E-1,4.727115E-1,3.2111023E-2,-2.861806E-1,-4.7158755E-2,4.322334E-1,2.9730903E-2,-2.957484E-1,-1.41902035E-2,1.9800677E0,-1.9002649E-1,-1.7091604E-1,3.8224238E-1,3.262567E-1,6.629219E-2,-5.386552E-2,-2.068067E-2,1.4402309E-1,-1.1515037E-1,5.741752E-2,-2.6529038E-2,7.64112E-2,-2.1604123E-2,3.2293762E-4,2.558284E-2,2.7409426E-3,3.3042606E-2,-2.770623E-2,5.8383614E-2,-8.395697E-2],"split_indices":[219,645,513,452,516,114,631,307,399,216,64,318,109,487,148,0,0,0,0,0,0,0,0,0,0,0,0,0,0,0,0],"split_type":[0,0,0,0,0,0,0,0,0,0,0,0,0,0,0,0,0,0,0,0,0,0,0,0,0,0,0,0,0,0,0],"sum_hessian":[3.7887478E3,2.3395412E2,3.5547937E3,4.7415474E1,1.8653864E2,3.089231E3,4.6556265E2,3.2464615E1,1.4950858E1,6.078526E1,1.2575338E2,1.4047874E3,1.6844436E3,4.2907367E2,3.648898E1,1.1144393E1,2.1320223E1,1.9561276E0,1.2994731E1,5.2893925E1,7.891333E0,1.1114978E2,1.4603596E1,5.1030112E2,8.9448627E2,3.1450256E2,1.3699412E3,3.7765277E2,5.14209E1,9.900109E0,2.6588871E1],"tree_param":{"num_deleted":"0","num_feature":"768","num_nodes":"31","size_leaf_vector":"1"}},{"base_weights":[-1.817276E-3,1.397013E-1,-3.0487148E-2,2.894E-1,-3.82272E-2,-2.874872E-1,-1.02662165E-2,3.3467224E-1,-5.8842826E-1,-1.4919055E-1,3.3176896E-1,-1.3124447E-1,-8.13694E-1,-1.7500373E-2,6.02255E-1,-4.1728552E-2,3.9406832E-2,8.388812E-2,-9.116441E-2,-3.2071583E-2,1.2366191E-2,-6.1266948E-2,5.625202E-2,-3.399106E-2,4.12567E-2,1.0952868E-1,-1.0547713E-1,-2.8979273E-3,3.5375737E-2,-2.4341887E-2,9.251138E-2],"categories":[],"categories_nodes":[],"categories_segments":[],"categories_sizes":[],"default_left":[0,0,0,0,0,0,0,0,0,0,0,0,0,0,0,0,0,0,0,0,0,0,0,0,0,0,0,0,0,0,0],"id":25,"left_children":[1,3,5,7,9,11,13,15,17,19,21,23,25,27,29,-1,-1,-1,-1,-1,-1,-1,-1,-1,-1,-1,-1,-1,-1,-1,-1],"loss_changes":[1.5363587E1,1.700188E1,1.636009E1,1.3969141E1,1.2052218E1,1.8772726E1,1.294952E1,1.491177E1,8.772736E0,1.0597565E1,1.5111375E1,2.0367428E1,2.5261566E1,1.2313329E1,9.539136E0,0E0,0E0,0E0,0E0,0E0,0E0,0E0,0E0,0E0,0E0,0E0,0E0,0E0,0E0,0E0,0E0],"parents":[2147483647,0,0,1,1,2,2,3,3,4,4,5,5,6,6,7,7,8,8,9,9,10,10,11,11,12,12,13,13,14,14],"right_children":[2,4,6,8,10,12,14,16,18,20,22,24,26,28,30,-1,-1,-1,-1,-1,-1,-1,-1,-1,-1,-1,-1,-1,-1,-1,-1],"split_conditions":[-3.1225188E-2,-5.446763E-2,-3.426544E-1,3.2469425E-1,-1.8993914E-1,2.4437268E-1,-1.3788847E0,2.5441247E-1,-4.7342068E-1,1.8155807E-1,-4.9354428E-1,1.5563445E-2,4.877465E-1,1.988559E-1,1.04340516E-1,-4.1728552E-2,3.9406832E-2,8.388812E-2,-9.116441E-2,-3.2071583E-2,1.2366191E-2,-6.1266948E-2,5.625202E-2,-3.399106E-2,4.12567E-2,1.0952868E-1,-1.0547713E-1,-2.8979273E-3,3.5375737E-2,-2.4341887E-2,9.251138E-2],"split_indices":[475,381,424,119,472,520,465,301,303,147,167,91,438,224,631,0,0,0,0,0,0,0,0,0,0,0,0,0,0,0,0],"split_type":[0,0,0,0,0,0,0,0,0,0,0,0,0,0,0,0,0,0,0,0,0,0,0,0,0,0,0,0,0,0,0],"sum_hessian":[3.7845852E3,6.3689716E2,3.147688E3,3.4554724E2,2.913499E2,2.2863318E2,2.919055E3,3.2918875E2,1.635849E1,2.2459096E2,6.675896E1,1.7725233E2,5.1380836E1,2.885942E3,3.3112873E1,2.3657532E1,3.0553122E2,2.7258432E0,1.3632647E1,1.3779343E2,8.679753E1,1.2783295E1,5.3975662E1,1.2837027E2,4.888207E1,5.3638296E0,4.6017006E1,2.8002822E3,8.5659836E1,9.216877E0,2.3895996E1],"tree_param":{"num_deleted":"0","num_feature":"768","num_nodes":"31","size_leaf_vector":"1"}},{"base_weights":[8.5396E-3,-7.540485E-3,2.7222314E-1,5.3425604E-1,-1.5736088E-2,3.4756377E-1,-6.282065E-1,1.1723526E0,7.987428E-2,-6.182196E-1,-8.701954E-3,8.127164E-2,6.3660514E-1,-1.4941797E0,4.3532842E-1,-7.725095E-2,1.3255593E-1,5.6290377E-2,-7.17546E-2,4.714097E-2,-8.996573E-2,-3.5019833E-4,-7.839482E-2,-5.7864614E-2,2.2825604E-2,-3.0876666E-2,7.5459845E-2,-1.3720936E-2,-1.6747512E-1,-1.00038014E-1,1.0344475E-1],"categories":[],"categories_nodes":[],"categories_segments":[],"categories_sizes":[],"default_left":[0,0,0,0,0,0,0,0,0,0,0,0,0,0,0,0,0,0,0,0,0,0,0,0,0,0,0,0,0,0,0],"id":26,"left_children":[1,3,5,7,9,11,13,15,17,19,21,23,25,27,29,-1,-1,-1,-1,-1,-1,-1,-1,-1,-1,-1,-1,-1,-1,-1,-1],"loss_changes":[1.6004868E1,1.5808247E1,1.4936558E1,1.5287958E1,1.4853685E1,1.54075985E1,1.6406666E1,7.576824E0,1.2752423E1,1.282828E1,1.3972586E1,1.0383314E1,1.09599495E1,2.1360645E0,8.305323E0,0E0,0E0,0E0,0E0,0E0,0E0,0E0,0E0,0E0,0E0,0E0,0E0,0E0,0E0,0E0,0E0],"parents":[2147483647,0,0,1,1,2,2,3,3,4,4,5,5,6,6,7,7,8,8,9,9,10,10,11,11,12,12,13,13,14,14],"right_children":[2,4,6,8,10,12,14,16,18,20,22,24,26,28,30,-1,-1,-1,-1,-1,-1,-1,-1,-1,-1,-1,-1,-1,-1,-1,-1],"split_conditions":[-1.8921006E-1,-2.354014E-1,2.0658939E-1,1.766165E-1,-2.9347646E-1,4.2177722E-1,-5.9239626E-1,7.8917E-2,2.6459807E-1,-5.204962E-1,-7.70346E-2,-2.6172683E-1,1.00203775E-1,-9.036129E-2,1.926798E-1,-7.725095E-2,1.3255593E-1,5.6290377E-2,-7.17546E-2,4.714097E-2,-8.996573E-2,-3.5019833E-4,-7.839482E-2,-5.7864614E-2,2.2825604E-2,-3.0876666E-2,7.5459845E-2,-1.3720936E-2,-1.6747512E-1,-1.00038014E-1,1.0344475E-1],"split_indices":[560,548,598,649,37,409,85,8,111,731,40,203,24,192,162,0,0,0,0,0,0,0,0,0,0,0,0,0,0,0,0],"split_type":[0,0,0,0,0,0,0,0,0,0,0,0,0,0,0,0,0,0,0,0,0,0,0,0,0,0,0,0,0,0,0],"sum_hessian":[3.7732007E3,3.5572427E3,2.1595819E2,5.2051086E1,3.5051914E3,1.9985034E2,1.6107851E1,2.0991808E1,3.105928E1,3.9448902E1,3.4657427E3,1.04685425E2,9.516491E1,8.655375E0,7.4524755E0,1.2377024E0,1.9754105E1,1.9525808E1,1.1533472E1,7.959083E0,3.1489819E1,3.4436487E3,2.2093784E1,1.853442E1,8.615101E1,1.0380301E1,8.4784615E1,1.2231826E0,7.4321923E0,1.9970529E0,5.4554224E0],"tree_param":{"num_deleted":"0","num_feature":"768","num_nodes":"31","size_leaf_vector":"1"}},{"base_weights":[1.2562497E-3,-7.0176413E-3,4.2050606E-1,4.79187E-2,-6.408882E-2,6.0645574E-1,-4.3847835E-1,-7.0508856E-1,5.790663E-2,-7.862071E-1,-5.0390664E-2,7.880559E-1,-3.8734204E-1,5.407817E-1,-1.4374815E-1,-1.0589502E-1,4.1356448E-2,-1.8273055E-3,1.672876E-2,3.40347E-3,-1.1554213E-1,-2.1597793E-2,5.7005737E-4,9.523518E-2,-5.4170918E-2,8.614479E-2,-9.6250966E-2,-9.346012E-2,1.2984866E-1],"categories":[],"categories_nodes":[],"categories_segments":[],"categories_sizes":[],"default_left":[0,0,0,0,0,0,0,0,0,0,0,0,0,0,0,0,0,0,0,0,0,0,0,0,0,0,0,0,0],"id":27,"left_children":[1,3,5,7,9,11,13,15,17,19,21,23,25,27,-1,-1,-1,-1,-1,-1,-1,-1,-1,-1,-1,-1,-1,-1,-1],"loss_changes":[1.3197832E1,1.1701474E1,1.2027072E1,1.4343764E1,1.8066885E1,1.1304934E1,1.4163739E1,1.0322456E1,1.5649748E1,1.0338518E1,1.6696102E1,1.1846397E1,8.074368E0,9.750653E0,0E0,0E0,0E0,0E0,0E0,0E0,0E0,0E0,0E0,0E0,0E0,0E0,0E0,0E0,0E0],"parents":[2147483647,0,0,1,1,2,2,3,3,4,4,5,5,6,6,7,7,8,8,9,9,10,10,11,11,12,12,13,13],"right_children":[2,4,6,8,10,12,14,16,18,20,22,24,26,28,-1,-1,-1,-1,-1,-1,-1,-1,-1,-1,-1,-1,-1,-1,-1],"split_conditions":[7.525352E-1,-2.4254806E-1,-1.8066263E-1,2.1361794E-1,-1.3410878E-1,1.15096405E-1,-3.7987775E-1,8.7641835E-2,-1.3234936E-1,-3.6116086E-2,-1.3193373E-1,-6.7158796E-2,3.6669E-1,-3.1029662E-1,-1.4374815E-1,-1.0589502E-1,4.1356448E-2,-1.8273055E-3,1.672876E-2,3.40347E-3,-1.1554213E-1,-2.1597793E-2,5.7005737E-4,9.523518E-2,-5.4170918E-2,8.614479E-2,-9.6250966E-2,-9.346012E-2,1.2984866E-1],"split_indices":[163,407,294,310,346,87,760,430,45,194,305,672,47,407,0,0,0,0,0,0,0,0,0,0,0,0,0,0,0],"split_type":[0,0,0,0,0,0,0,0,0,0,0,0,0,0,0,0,0,0,0,0,0,0,0,0,0,0,0,0,0],"sum_hessian":[3.8028452E3,3.7302126E3,7.263245E1,1.9007366E3,1.8294761E3,5.994892E1,1.2683528E1,2.3970444E1,1.8767661E3,3.3008152E1,1.7964679E3,5.0861794E1,9.087128E0,6.6366835E0,6.0468445E0,1.8250624E1,5.7198186E0,1.1067734E3,7.699927E2,1.0527719E1,2.2480434E1,4.538384E2,1.3426295E3,4.5521336E1,5.3404574E0,2.7085836E0,6.3785443E0,2.1726649E0,4.4640183E0],"tree_param":{"num_deleted":"0","num_feature":"768","num_nodes":"29","size_leaf_vector":"1"}},{"base_weights":[-4.922195E-3,-5.630256E-1,1.5579909E-3,-9.344354E-1,3.1188005E-1,-1.1971637E-2,2.9191324E-1,-1.2915391E0,6.8294436E-1,1.5733604E-1,-3.6751732E-1,1.0722335E-1,-1.4859815E-2,-2.5286797E-1,4.316511E-1,3.7284944E-2,-1.4467375E-1,-1.10930674E-1,1.3597453E-1,6.407784E-2,-1.23164296E-1,-3.0359939E-2,-4.6121233E-4,7.742243E-2,-7.628917E-2,-7.057494E-2,5.289459E-2],"categories":[],"categories_nodes":[],"categories_segments":[],"categories_sizes":[],"default_left":[0,0,0,0,0,0,0,0,0,0,0,0,0,0,0,0,0,0,0,0,0,0,0,0,0,0,0],"id":28,"left_children":[1,3,5,7,9,11,13,15,17,-1,19,-1,21,23,25,-1,-1,-1,-1,-1,-1,-1,-1,-1,-1,-1,-1],"loss_changes":[1.3628124E1,1.434568E1,1.4639557E1,1.856266E1,1.2267265E1,1.1166115E1,1.2739771E1,7.106022E0,9.01752E0,0E0,9.219143E0,0E0,1.0509601E1,1.8663567E1,1.5026802E1,0E0,0E0,0E0,0E0,0E0,0E0,0E0,0E0,0E0,0E0,0E0,0E0],"parents":[2147483647,0,0,1,1,2,2,3,3,4,4,5,5,6,6,7,7,8,8,10,10,12,12,13,13,14,14],"right_children":[2,4,6,8,10,12,14,16,18,-1,20,-1,22,24,26,-1,-1,-1,-1,-1,-1,-1,-1,-1,-1,-1,-1],"split_conditions":[1.1830205E-2,2.8803074E0,7.948514E-3,1.6568281E-1,8.748294E-2,-1.5343629E-1,-2.512127E-1,-1.5895909E-1,-1.8195131E-1,1.5733604E-1,1.6452274E-1,1.0722335E-1,-1.7246296E-1,1.4261031E-1,-3.7373048E-1,3.7284944E-2,-1.4467375E-1,-1.10930674E-1,1.3597453E-1,6.407784E-2,-1.23164296E-1,-3.0359939E-2,-4.6121233E-4,7.742243E-2,-7.628917E-2,-7.057494E-2,5.289459E-2],"split_indices":[129,259,620,515,660,72,99,70,266,0,690,0,595,197,362,0,0,0,0,0,0,0,0,0,0,0,0],"split_type":[0,0,0,0,0,0,0,0,0,0,0,0,0,0,0,0,0,0,0,0,0,0,0,0,0,0,0],"sum_hessian":[3.7669578E3,4.2250683E1,3.724707E3,2.961195E1,1.2638735E1,3.559791E3,1.6491612E2,2.442138E1,5.1905704E0,3.9635472E0,8.675187E0,8.473942E0,3.5513171E3,3.350074E1,1.3141539E2,1.9633614E0,2.2458017E1,1.2476357E0,3.9429348E0,4.122896E0,4.552291E0,1.2073909E2,3.430578E3,1.0943852E1,2.2556887E1,9.862816E0,1.2155257E2],"tree_param":{"num_deleted":"0","num_feature":"768","num_nodes":"27","size_leaf_vector":"1"}},{"base_weights":[1.6511421E-3,-6.646024E-2,4.4909768E-2,-5.292865E-2,-7.5919926E-1,4.1524947E-1,2.7335057E-2,-9.0151146E-2,1.6123827E-1,-9.940905E-1,7.0025885E-1,-4.8590356E-1,6.801744E-1,7.090295E-2,-1.2797461E-1,-1.5756583E-2,3.29035E-3,3.379068E-2,-2.3425896E-2,-1.1142488E-1,7.0106365E-2,-3.723013E-2,1.3600245E-1,-1.01523414E-1,4.40117E-2,8.361956E-2,-3.5493746E-2,4.9808263E-3,4.1551284E-2,-8.670115E-2,-8.32135E-3],"categories":[],"categories_nodes":[],"categories_segments":[],"categories_sizes":[],"default_left":[0,0,0,0,0,0,0,0,0,0,0,0,0,0,0,0,0,0,0,0,0,0,0,0,0,0,0,0,0,0,0],"id":29,"left_children":[1,3,5,7,9,11,13,15,17,19,21,23,25,27,29,-1,-1,-1,-1,-1,-1,-1,-1,-1,-1,-1,-1,-1,-1,-1,-1],"loss_changes":[1.1156801E1,1.3746923E1,1.5061067E1,1.1523455E1,1.0330729E1,2.536139E1,1.4976052E1,1.021366E1,1.5040336E1,5.796257E0,3.6786065E0,1.2408836E1,1.3449787E1,1.2540889E1,1.5969029E1,0E0,0E0,0E0,0E0,0E0,0E0,0E0,0E0,0E0,0E0,0E0,0E0,0E0,0E0,0E0,0E0],"parents":[2147483647,0,0,1,1,2,2,3,3,4,4,5,5,6,6,7,7,8,8,9,9,10,10,11,11,12,12,13,13,14,14],"right_children":[2,4,6,8,10,12,14,16,18,20,22,24,26,28,30,-1,-1,-1,-1,-1,-1,-1,-1,-1,-1,-1,-1,-1,-1,-1,-1],"split_conditions":[3.1437248E-1,1.027151E-1,-1.9516996E-1,7.642928E-1,5.429664E-1,-1.4558391E-1,8.9744675E-1,-1.0287988E0,3.9254E-1,2.797963E-1,1.4585418E-1,2.215201E-1,-1.3590929E-2,-3.8444426E-2,-2.5452906E-1,-1.5756583E-2,3.29035E-3,3.379068E-2,-2.3425896E-2,-1.1142488E-1,7.0106365E-2,-3.723013E-2,1.3600245E-1,-1.01523414E-1,4.40117E-2,8.361956E-2,-3.5493746E-2,4.9808263E-3,4.1551284E-2,-8.670115E-2,-8.32135E-3],"split_indices":[493,43,548,764,165,50,123,97,89,618,722,618,0,505,217,0,0,0,0,0,0,0,0,0,0,0,0,0,0,0,0],"split_type":[0,0,0,0,0,0,0,0,0,0,0,0,0,0,0,0,0,0,0,0,0,0,0,0,0,0,0,0,0,0,0],"sum_hessian":[3.7845684E3,1.4698035E3,2.314765E3,1.442699E3,2.7104494E1,1.0384673E2,2.2109182E3,1.229576E3,2.1312291E2,2.3621601E1,3.4828947E0,2.3403763E1,8.044297E1,1.726999E3,4.8391907E2,7.941989E2,4.353771E2,1.4741727E2,6.570565E1,2.2378054E1,1.2435466E0,1.4924206E0,1.9904741E0,1.4830202E1,8.57356E0,7.0073105E1,1.0369867E1,1.6284602E3,9.853882E1,2.6586573E1,4.573325E2],"tree_param":{"num_deleted":"0","num_feature":"768","num_nodes":"31","size_leaf_vector":"1"}},{"base_weights":[6.4338436E-3,-2.226292E-2,1.1865608E-1,-1.0330482E-1,4.1485257E-2,4.261289E-1,5.2080546E-2,-1.746875E-2,-2.7950147E-1,1.0340888E-1,-1.0160352E-1,1.2662978E-1,8.74045E-1,8.420596E-2,-7.9708654E-1,2.1252062E-2,-8.71712E-3,-7.007679E-2,-2.139814E-2,1.8328395E-3,2.7540553E-2,6.5379426E-2,-1.5677368E-2,5.1963616E-2,-2.6599018E-2,2.3455059E-3,1.15926705E-1,-1.3248944E-3,3.2406162E-2,5.522854E-2,-1.1284149E-1],"categories":[],"categories_nodes":[],"categories_segments":[],"categories_sizes":[],"default_left":[0,0,0,0,0,0,0,0,0,0,0,0,0,0,0,0,0,0,0,0,0,0,0,0,0,0,0,0,0,0,0],"id":30,"left_children":[1,3,5,7,9,11,13,15,17,19,21,23,25,27,29,-1,-1,-1,-1,-1,-1,-1,-1,-1,-1,-1,-1,-1,-1,-1,-1],"loss_changes":[1.2188776E1,1.5576926E1,1.5754933E1,2.0071018E1,1.4966017E1,1.827352E1,1.7381529E1,1.4344499E1,1.1850193E1,1.7241306E1,2.1370415E1,1.2991072E1,1.3254322E1,1.432071E1,1.1009831E1,0E0,0E0,0E0,0E0,0E0,0E0,0E0,0E0,0E0,0E0,0E0,0E0,0E0,0E0,0E0,0E0],"parents":[2147483647,0,0,1,1,2,2,3,3,4,4,5,5,6,6,7,7,8,8,9,9,10,10,11,11,12,12,13,13,14,14],"right_children":[2,4,6,8,10,12,14,16,18,20,22,24,26,28,30,-1,-1,-1,-1,-1,-1,-1,-1,-1,-1,-1,-1,-1,-1,-1,-1],"split_conditions":[2.8923932E-1,-4.9017385E-2,-1.9949377E-1,1.3834391E0,-2.885759E-1,-2.1167937E-1,2.3092565E-1,2.917563E-1,4.2422783E-1,2.187785E-2,-3.8060844E-2,1.4160503E-1,-7.539414E-2,-3.280187E-1,-1.2521496E-1,2.1252062E-2,-8.71712E-3,-7.007679E-2,-2.139814E-2,1.8328395E-3,2.7540553E-2,6.5379426E-2,-1.5677368E-2,5.1963616E-2,-2.6599018E-2,2.3455059E-3,1.15926705E-1,-1.3248944E-3,3.2406162E-2,5.522854E-2,-1.1284149E-1],"split_indices":[207,114,237,542,399,685,58,416,484,17,125,182,597,665,194,0,0,0,0,0,0,0,0,0,0,0,0,0,0,0,0],"split_type":[0,0,0,0,0,0,0,0,0,0,0,0,0,0,0,0,0,0,0,0,0,0,0,0,0,0,0,0,0,0,0],"sum_hessian":[3.7830264E3,3.0132888E3,7.697376E2,1.3264176E3,1.6868712E3,1.3604161E2,6.33696E2,8.926519E2,4.3376572E2,1.1775483E3,5.093228E2,8.229665E1,5.3744953E1,6.114641E2,2.2231876E1,2.0713681E2,6.8551514E2,5.7078636E1,3.7668707E2,7.885754E2,3.88973E2,3.392782E1,4.75395E2,4.096641E1,4.1330242E1,1.3768056E1,3.9976894E1,4.3547327E2,1.7599084E2,4.25126E0,1.7980618E1],"tree_param":{"num_deleted":"0","num_feature":"768","num_nodes":"31","size_leaf_vector":"1"}},{"base_weights":[-1.2109152E-2,-6.639152E-2,4.9650516E-2,-4.6345755E-2,-4.6446717E-1,-1.2191785E-1,9.8678336E-2,2.8360832E-1,-6.668748E-2,-3.1538546E-2,-8.4769106E-1,-1.6026703E-1,8.1980973E-1,7.161635E-2,6.683255E-1,-8.3586484E-2,3.599618E-2,-5.680571E-2,-5.2732225E-3,-3.394086E-2,9.409738E-2,1.1711015E-1,-9.755766E-2,9.035226E-3,-2.9744333E-2,-2.9903797E-2,1.3592379E-1,5.831874E-3,1.13526404E-1,-9.5052116E-2,8.2208365E-2],"categories":[],"categories_nodes":[],"categories_segments":[],"categories_sizes":[],"default_left":[0,0,0,0,0,0,0,0,0,0,0,0,0,0,0,0,0,0,0,0,0,0,0,0,0,0,0,0,0,0,0],"id":31,"left_children":[1,3,5,7,9,11,13,15,17,19,21,23,25,27,29,-1,-1,-1,-1,-1,-1,-1,-1,-1,-1,-1,-1,-1,-1,-1,-1],"loss_changes":[1.2657421E1,1.601236E1,1.4869074E1,1.286607E1,1.5937191E1,1.4324348E1,2.113731E1,9.81797E0,1.25905E1,1.4157758E1,1.4309891E1,1.3037896E1,9.786099E0,1.8505497E1,1.6264944E1,0E0,0E0,0E0,0E0,0E0,0E0,0E0,0E0,0E0,0E0,0E0,0E0,0E0,0E0,0E0,0E0],"parents":[2147483647,0,0,1,1,2,2,3,3,4,4,5,5,6,6,7,7,8,8,9,9,10,10,11,11,12,12,13,13,14,14],"right_children":[2,4,6,8,10,12,14,16,18,20,22,24,26,28,30,-1,-1,-1,-1,-1,-1,-1,-1,-1,-1,-1,-1,-1,-1,-1,-1],"split_conditions":[1.0932846E0,2.1411636E0,4.202564E-1,1.1350211E0,-1.06309485E-2,3.046286E-2,-1.8470952E-1,-1.1793628E-2,-3.1770858E-1,4.0401354E-2,1.4194062E-1,-7.9687595E-1,2.0256524E-1,-1.6025423E-1,2.5554565E-1,-8.3586484E-2,3.599618E-2,-5.680571E-2,-5.2732225E-3,-3.394086E-2,9.409738E-2,1.1711015E-1,-9.755766E-2,9.035226E-3,-2.9744333E-2,-2.9903797E-2,1.3592379E-1,5.831874E-3,1.13526404E-1,-9.5052116E-2,8.2208365E-2],"split_indices":[576,658,409,676,258,620,560,504,656,187,100,140,22,342,104,0,0,0,0,0,0,0,0,0,0,0,0,0,0,0,0],"split_type":[0,0,0,0,0,0,0,0,0,0,0,0,0,0,0,0,0,0,0,0,0,0,0,0,0,0,0,0,0,0,0],"sum_hessian":[3.7735781E3,2.0083265E3,1.7652516E3,1.9131053E3,9.522119E1,3.9199927E2,1.3732523E3,1.1034271E2,1.8027626E3,4.5219242E1,5.000195E1,3.7745816E2,1.454109E1,1.3120471E3,6.1205147E1,6.4102407E0,1.0393247E2,4.7744453E1,1.7550182E3,3.4840668E1,1.0378576E1,2.4928331E0,4.7509117E1,1.3364035E2,2.4381781E2,4.875101E0,9.665989E0,1.2968884E3,1.5158734E1,4.8595304E0,5.6345615E1],"tree_param":{"num_deleted":"0","num_feature":"768","num_nodes":"31","size_leaf_vector":"1"}},{"base_weights":[5.100234E-3,1.2842818E-1,-2.2815526E-2,3.375669E-2,4.3304422E-1,-9.342146E-1,-1.7389717E-2,6.636945E-2,-6.6151553E-1,1.8067067E-2,6.2915665E-1,4.9071214E-1,-1.2433797E0,6.5150843E-3,-2.0749617E-1,4.6758847E-3,1.1645295E-1,9.506096E-2,-9.5777474E-2,-5.1080484E-2,5.387125E-2,-3.0590354E-2,7.161209E-2,-4.3299958E-2,1.2237451E-1,8.5223885E-3,-1.5078074E-1,-1.1427775E-3,3.0535648E-2,-4.2304997E-3,-4.4168588E-2],"categories":[],"categories_nodes":[],"categories_segments":[],"categories_sizes":[],"default_left":[0,0,0,0,0,0,0,0,0,0,0,0,0,0,0,0,0,0,0,0,0,0,0,0,0,0,0,0,0,0,0],"id":32,"left_children":[1,3,5,7,9,11,13,15,17,19,21,23,25,27,29,-1,-1,-1,-1,-1,-1,-1,-1,-1,-1,-1,-1,-1,-1,-1,-1],"loss_changes":[1.2957234E1,2.0018183E1,1.5160569E1,1.2085029E1,1.3385687E1,8.603238E0,1.3870721E1,1.0888911E1,1.2317727E1,1.5105655E1,9.306995E0,3.2057173E0,5.465784E0,1.4545441E1,1.3170461E1,0E0,0E0,0E0,0E0,0E0,0E0,0E0,0E0,0E0,0E0,0E0,0E0,0E0,0E0,0E0,0E0],"parents":[2147483647,0,0,1,1,2,2,3,3,4,4,5,5,6,6,7,7,8,8,9,9,10,10,11,11,12,12,13,13,14,14],"right_children":[2,4,6,8,10,12,14,16,18,20,22,24,26,28,30,-1,-1,-1,-1,-1,-1,-1,-1,-1,-1,-1,-1,-1,-1,-1,-1],"split_conditions":[2.0943253E-1,1.9815413E0,1.0469161E0,1.1432622E-1,-2.1290624E-1,1.18919455E-1,-1.4673923E-1,1.2334628E-1,-1.7539972E-1,-1.2755666E0,4.6233265E-3,1.9043966E-1,-2.0675465E-1,5.131383E-1,2.8816614E-1,4.6758847E-3,1.1645295E-1,9.506096E-2,-9.5777474E-2,-5.1080484E-2,5.387125E-2,-3.0590354E-2,7.161209E-2,-4.3299958E-2,1.2237451E-1,8.5223885E-3,-1.5078074E-1,-1.1427775E-3,3.0535648E-2,-4.2304997E-3,-4.4168588E-2],"split_indices":[561,363,542,508,661,618,516,426,109,214,668,708,667,696,691,0,0,0,0,0,0,0,0,0,0,0,0,0,0,0,0],"split_type":[0,0,0,0,0,0,0,0,0,0,0,0,0,0,0,0,0,0,0,0,0,0,0,0,0,0,0,0,0,0,0],"sum_hessian":[3.761731E3,6.9365576E2,3.0680752E3,5.300367E2,1.6361905E2,1.7143953E1,3.0509312E3,5.071525E2,2.2884193E1,5.285953E1,1.1075952E2,2.9518425E0,1.419211E1,2.7110037E3,3.3992752E2,4.9927908E2,7.8733964E0,3.20968E0,1.9674513E1,2.6231977E1,2.6627556E1,9.210324E0,1.01549194E2,1.487152E0,1.4646906E0,2.4682438E0,1.1723866E1,2.5583582E3,1.5264568E2,2.0001964E2,1.3990787E2],"tree_param":{"num_deleted":"0","num_feature":"768","num_nodes":"31","size_leaf_vector":"1"}},{"base_weights":[-7.1890345E-3,-1.7674077E-2,2.8117773E-1,7.079078E-2,-5.9931204E-2,3.622658E-1,-1.0553225E0,-7.5912E-1,8.6470746E-2,6.631894E-2,-1.03599764E-1,9.338364E-2,7.9644936E-1,-1.4849113E-1,6.7785256E-2,-1.1124573E-1,6.701674E-2,1.4044918E-2,-9.174345E-3,-3.2816764E-2,1.2516144E-2,-1.4969572E-2,4.3949373E-3,-2.8480643E-2,4.784183E-2,1.081171E-1,-1.0068635E-2],"categories":[],"categories_nodes":[],"categories_segments":[],"categories_sizes":[],"default_left":[0,0,0,0,0,0,0,0,0,0,0,0,0,0,0,0,0,0,0,0,0,0,0,0,0,0,0],"id":33,"left_children":[1,3,5,7,9,11,13,15,17,19,21,23,25,-1,-1,-1,-1,-1,-1,-1,-1,-1,-1,-1,-1,-1,-1],"loss_changes":[1.1392575E1,1.3593306E1,1.4709187E1,1.5362982E1,1.3572413E1,1.4563103E1,6.827074E0,1.1805813E1,1.1120253E1,1.4733926E1,1.2443686E1,1.1576259E1,1.2323227E1,0E0,0E0,0E0,0E0,0E0,0E0,0E0,0E0,0E0,0E0,0E0,0E0,0E0,0E0],"parents":[2147483647,0,0,1,1,2,2,3,3,4,4,5,5,6,6,7,7,8,8,9,9,10,10,11,11,12,12],"right_children":[2,4,6,8,10,12,14,16,18,20,22,24,26,-1,-1,-1,-1,-1,-1,-1,-1,-1,-1,-1,-1,-1,-1],"split_conditions":[1.4413781E-1,3.2480752E-1,1.6534649E0,-5.057001E-1,-1.919196E-1,2.3242024E-1,1.7612742E-1,7.218478E-2,2.2395697E-1,-2.2234671E-1,-2.1602409E-2,-4.209269E-1,7.8338705E-2,-1.4849113E-1,6.7785256E-2,-1.1124573E-1,6.701674E-2,1.4044918E-2,-9.174345E-3,-3.2816764E-2,1.2516144E-2,-1.4969572E-2,4.3949373E-3,-2.8480643E-2,4.784183E-2,1.081171E-1,-1.0068635E-2],"split_indices":[762,416,198,625,335,164,13,762,324,200,394,358,117,0,0,0,0,0,0,0,0,0,0,0,0,0,0],"split_type":[0,0,0,0,0,0,0,0,0,0,0,0,0,0,0,0,0,0,0,0,0,0,0,0,0,0,0],"sum_hessian":[3.765318E3,3.6341199E3,1.3119823E2,1.1745455E3,2.4595742E3,1.2438076E2,6.817477E0,2.0900648E1,1.1536449E3,6.3196936E2,1.827605E3,7.756266E1,4.6818092E1,5.578115E0,1.2393622E0,1.6935623E1,3.9650235E0,8.8561664E2,2.6802826E2,8.1436066E1,5.505333E2,1.3925443E3,4.3506067E2,3.9260445E1,3.830222E1,3.538341E1,1.143468E1],"tree_param":{"num_deleted":"0","num_feature":"768","num_nodes":"27","size_leaf_vector":"1"}},{"base_weights":[3.2723448E-3,1.91715E-2,-1.9587146E-1,-9.12486E-3,1.7087093E-1,-3.5150164E-1,1.2901522E-1,1.7821766E-1,-3.0758522E-2,1.2846789E-1,6.6023135E-1,-5.1057464E-1,1.5840888E-1,6.5449697E-1,-1.8464723E-1,3.274063E-2,-1.7346576E-2,-3.3494424E-2,-1.4224767E-3,3.623034E-2,3.4204249E-3,7.6628327E-3,1.0095E-1,-7.686939E-2,-2.304579E-2,-7.8554004E-2,4.5939196E-2,1.10089876E-1,-1.8335694E-2,-1.308624E-1,4.196764E-3],"categories":[],"categories_nodes":[],"categories_segments":[],"categories_sizes":[],"default_left":[0,0,0,0,0,0,0,0,0,0,0,0,0,0,0,0,0,0,0,0,0,0,0,0,0,0,0,0,0,0,0],"id":34,"left_children":[1,3,5,7,9,11,13,15,17,19,21,23,25,27,29,-1,-1,-1,-1,-1,-1,-1,-1,-1,-1,-1,-1,-1,-1,-1,-1],"loss_changes":[1.1880868E1,1.4917135E1,1.4072978E1,1.1878313E1,1.1251181E1,1.5317659E1,1.5051722E1,1.5975928E1,1.3207546E1,1.1096491E1,8.752922E0,1.0192371E1,1.3268085E1,1.2948571E1,1.470238E1,0E0,0E0,0E0,0E0,0E0,0E0,0E0,0E0,0E0,0E0,0E0,0E0,0E0,0E0,0E0,0E0],"parents":[2147483647,0,0,1,1,2,2,3,3,4,4,5,5,6,6,7,7,8,8,9,9,10,10,11,11,12,12,13,13,14,14],"right_children":[2,4,6,8,10,12,14,16,18,20,22,24,26,28,30,-1,-1,-1,-1,-1,-1,-1,-1,-1,-1,-1,-1,-1,-1,-1,-1],"split_conditions":[4.4367456E-1,-2.6140955E-1,7.106603E-2,-2.5677878E-1,3.7703416E-1,-6.4175135E-1,-3.0079454E-1,-4.5862657E-1,-2.718979E-1,5.7085E-1,-4.1426456E-1,2.6838896E-1,1.3458675E0,-8.958945E-2,-2.811568E-1,3.274063E-2,-1.7346576E-2,-3.3494424E-2,-1.4224767E-3,3.623034E-2,3.4204249E-3,7.6628327E-3,1.0095E-1,-7.686939E-2,-2.304579E-2,-7.8554004E-2,4.5939196E-2,1.10089876E-1,-1.8335694E-2,-1.308624E-1,4.196764E-3],"split_indices":[632,560,224,246,592,634,436,153,505,422,396,619,623,384,436,0,0,0,0,0,0,0,0,0,0,0,0,0,0,0,0],"split_type":[0,0,0,0,0,0,0,0,0,0,0,0,0,0,0,0,0,0,0,0,0,0,0,0,0,0,0,0,0,0,0],"sum_hessian":[3.7501987E3,3.4737654E3,2.7643326E2,2.928462E3,5.453036E2,1.8684644E2,8.9586815E1,3.0241135E2,2.6260505E3,5.029827E2,4.2320877E1,1.4241652E2,4.4429916E1,3.3080353E1,5.6506462E1,2.1238426E2,9.00271E1,1.3438557E2,2.491665E3,1.4369115E2,3.5929156E2,1.630155E1,2.6019327E1,7.321076E1,6.920576E1,1.0352449E1,3.407747E1,2.137694E1,1.1703412E1,8.680045E0,4.7826416E1],"tree_param":{"num_deleted":"0","num_feature":"768","num_nodes":"31","size_leaf_vector":"1"}},{"base_weights":[-5.149569E-3,-2.0102246E-1,1.3349393E-2,-7.094884E-1,-1.1163814E-1,2.4472868E-1,-3.5267512E-3,-7.3689185E-2,-1.0265859E0,-1.577833E-1,7.7852887E-1,3.6473423E-1,-2.9817638E-1,-9.2140436E-1,3.379591E-4,-9.2158556E-2,7.773025E-2,-8.7952055E-3,-1.2666625E-1,-1.2239969E-3,-4.5175787E-2,-9.741118E-2,1.1963935E-1,1.1085837E-2,7.6826535E-2,5.1146865E-2,-6.327408E-2,7.212567E-2,-1.264504E-1,8.857957E-3,-4.1394546E-3],"categories":[],"categories_nodes":[],"categories_segments":[],"categories_sizes":[],"default_left":[0,0,0,0,0,0,0,0,0,0,0,0,0,0,0,0,0,0,0,0,0,0,0,0,0,0,0,0,0,0,0],"id":35,"left_children":[1,3,5,7,9,11,13,15,17,19,21,23,25,27,29,-1,-1,-1,-1,-1,-1,-1,-1,-1,-1,-1,-1,-1,-1,-1,-1],"loss_changes":[1.3726785E1,1.4778358E1,1.3517981E1,9.740561E0,1.1592255E1,1.5441235E1,1.1448757E1,1.3184553E1,7.191845E0,1.138791E1,1.136691E1,1.9705791E1,1.2012718E1,8.538652E0,1.18423395E1,0E0,0E0,0E0,0E0,0E0,0E0,0E0,0E0,0E0,0E0,0E0,0E0,0E0,0E0,0E0,0E0],"parents":[2147483647,0,0,1,1,2,2,3,3,4,4,5,5,6,6,7,7,8,8,9,9,10,10,11,11,12,12,13,13,14,14],"right_children":[2,4,6,8,10,12,14,16,18,20,22,24,26,28,30,-1,-1,-1,-1,-1,-1,-1,-1,-1,-1,-1,-1,-1,-1,-1,-1],"split_conditions":[2.7851372E-3,-9.460577E-2,-9.565099E-2,2.850004E-1,5.502977E-1,-9.022933E-1,-4.443513E-1,2.2593825E-1,3.6767852E-1,-6.440644E-2,3.03474E-1,6.048729E-2,-7.285884E-1,-3.2597083E-1,-7.210228E-2,-9.2158556E-2,7.773025E-2,-8.7952055E-3,-1.2666625E-1,-1.2239969E-3,-4.5175787E-2,-9.741118E-2,1.1963935E-1,1.1085837E-2,7.6826535E-2,5.1146865E-2,-6.327408E-2,7.212567E-2,-1.264504E-1,8.857957E-3,-4.1394546E-3],"split_indices":[10,548,637,148,459,724,375,201,513,563,528,168,74,539,753,0,0,0,0,0,0,0,0,0,0,0,0,0,0,0,0],"split_type":[0,0,0,0,0,0,0,0,0,0,0,0,0,0,0,0,0,0,0,0,0,0,0,0,0,0,0,0,0,0,0],"sum_hessian":[3.786583E3,3.259072E2,3.4606758E3,4.768901E1,2.782182E2,2.343353E2,3.2263403E3,1.6279682E1,3.140933E1,2.652887E2,1.2929488E1,1.9218275E2,4.2152542E1,1.2532061E1,3.2138083E3,8.113118E0,8.166563E0,6.675662E0,2.473367E1,1.7813689E2,8.7151825E1,2.2329035E0,1.0696585E1,1.1874853E2,7.343423E1,1.2170705E1,2.9981838E1,1.9748547E0,1.0557206E1,1.0315394E3,2.1822688E3],"tree_param":{"num_deleted":"0","num_feature":"768","num_nodes":"31","size_leaf_vector":"1"}},{"base_weights":[-6.0608676E-3,-2.097826E-2,2.116692E-1,-2.8616858E-1,-9.378977E-3,4.7202695E-2,5.32772E-1,-4.2925054E-1,3.2108775E-1,1.0876113E-2,-1.8562046E-1,-4.5791417E-1,2.2820537E-1,-8.085244E-1,6.381378E-1,-5.4006603E-2,6.0047638E-2,-9.673581E-2,5.818505E-2,-1.168933E-2,4.632411E-3,-2.5291324E-2,3.9827418E-2,-1.0488167E-1,-3.6105576E-3,-8.273514E-2,3.111649E-2,6.4902686E-2,-1.2839167E-1,-1.1711828E-1,6.957835E-2],"categories":[],"categories_nodes":[],"categories_segments":[],"categories_sizes":[],"default_left":[0,0,0,0,0,0,0,0,0,0,0,0,0,0,0,0,0,0,0,0,0,0,0,0,0,0,0,0,0,0,0],"id":36,"left_children":[1,3,5,7,9,11,13,15,17,19,21,23,25,27,29,-1,-1,-1,-1,-1,-1,-1,-1,-1,-1,-1,-1,-1,-1,-1,-1],"loss_changes":[1.2252385E1,1.0855889E1,1.2748942E1,1.2988408E1,1.2079237E1,1.4829216E1,1.2080894E1,1.4031635E1,1.0230634E1,1.3753161E1,1.380562E1,1.0634804E1,1.069858E1,5.26873E0,8.786507E0,0E0,0E0,0E0,0E0,0E0,0E0,0E0,0E0,0E0,0E0,0E0,0E0,0E0,0E0,0E0,0E0],"parents":[2147483647,0,0,1,1,2,2,3,3,4,4,5,5,6,6,7,7,8,8,9,9,10,10,11,11,12,12,13,13,14,14],"right_children":[2,4,6,8,10,12,14,16,18,20,22,24,26,28,30,-1,-1,-1,-1,-1,-1,-1,-1,-1,-1,-1,-1,-1,-1,-1,-1],"split_conditions":[-1.7169918E-1,-6.306037E-2,-8.621178E-3,5.849777E-3,-6.8888956E-1,3.1269616E-1,6.533028E-1,9.883045E-2,1.5501767E-1,-1.1067962E-1,1.18484795E-1,-2.7517438E-1,2.1101604E-1,4.016806E-1,-4.0089616E-1,-5.4006603E-2,6.0047638E-2,-9.673581E-2,5.818505E-2,-1.168933E-2,4.632411E-3,-2.5291324E-2,3.9827418E-2,-1.0488167E-1,-3.6105576E-3,-8.273514E-2,3.111649E-2,6.4902686E-2,-1.2839167E-1,-1.1711828E-1,6.957835E-2],"split_indices":[238,39,288,683,278,754,123,372,440,174,50,517,129,356,390,0,0,0,0,0,0,0,0,0,0,0,0,0,0,0,0],"split_type":[0,0,0,0,0,0,0,0,0,0,0,0,0,0,0,0,0,0,0,0,0,0,0,0,0,0,0,0,0,0,0],"sum_hessian":[3.7699597E3,3.529075E3,2.4088472E2,1.4689922E2,3.3821758E3,1.6005348E2,8.083123E1,1.19124245E2,2.777497E1,3.0343787E3,3.4779694E2,4.181953E1,1.18233955E2,5.4011846E0,7.5430046E1,1.07979416E2,1.1144828E1,4.2189813E0,2.3555988E1,6.5851556E2,2.3758633E3,3.1236438E2,3.543257E1,1.6799292E1,2.5020239E1,7.9614506E0,1.1027251E2,1.2385494E0,4.1626353E0,1.7325853E0,7.369746E1],"tree_param":{"num_deleted":"0","num_feature":"768","num_nodes":"31","size_leaf_vector":"1"}},{"base_weights":[-1.4648734E-3,-2.3715836E-1,1.4435475E-2,-7.362443E-1,-1.00124426E-1,-8.228585E-3,1.8233697E-1,-1.1379881E0,-2.500777E-1,-1.7444628E-1,7.829045E-1,-3.3464093E-2,1.7070857E-1,1.3770643E-2,3.988507E-1,-2.110873E-2,-1.3816859E-1,1.671656E-2,-1.2051951E-1,-4.864786E-2,7.435787E-3,-5.5404324E-2,1.3140337E-1,-1.7074123E-2,7.1827165E-4,6.819821E-2,6.9238315E-3,3.654456E-2,-1.3661573E-2,-8.121475E-2,4.649825E-2],"categories":[],"categories_nodes":[],"categories_segments":[],"categories_sizes":[],"default_left":[0,0,0,0,0,0,0,0,0,0,0,0,0,0,0,0,0,0,0,0,0,0,0,0,0,0,0,0,0,0,0],"id":37,"left_children":[1,3,5,7,9,11,13,15,17,19,21,23,25,27,29,-1,-1,-1,-1,-1,-1,-1,-1,-1,-1,-1,-1,-1,-1,-1,-1],"loss_changes":[1.4140859E1,1.6235422E1,1.3453044E1,9.71814E0,1.249132E1,1.4073828E1,1.5339758E1,5.978817E0,9.946653E0,1.3580073E1,1.1235151E1,1.5241189E1,1.9938267E1,1.2607352E1,1.5114553E1,0E0,0E0,0E0,0E0,0E0,0E0,0E0,0E0,0E0,0E0,0E0,0E0,0E0,0E0,0E0,0E0],"parents":[2147483647,0,0,1,1,2,2,3,3,4,4,5,5,6,6,7,7,8,8,9,9,10,10,11,11,12,12,13,13,14,14],"right_children":[2,4,6,8,10,12,14,16,18,20,22,24,26,28,30,-1,-1,-1,-1,-1,-1,-1,-1,-1,-1,-1,-1,-1,-1,-1,-1],"split_conditions":[-5.357009E-1,4.5024335E-1,-7.461858E-2,2.9823668E-2,5.3416714E-2,-2.1367586E-1,1.0058086E-3,-3.573783E-1,-1.6875686E-1,-2.886188E-1,2.1267207E-1,-4.1137052E-1,-5.1968228E-2,-2.2526392E-1,-3.370021E-1,-2.110873E-2,-1.3816859E-1,1.671656E-2,-1.2051951E-1,-4.864786E-2,7.435787E-3,-5.5404324E-2,1.3140337E-1,-1.7074123E-2,7.1827165E-4,6.819821E-2,6.9238315E-3,3.654456E-2,-1.3661573E-2,-8.121475E-2,4.649825E-2],"split_indices":[40,675,199,319,372,5,531,468,577,517,129,560,346,401,379,0,0,0,0,0,0,0,0,0,0,0,0,0,0,0,0],"split_type":[0,0,0,0,0,0,0,0,0,0,0,0,0,0,0,0,0,0,0,0,0,0,0,0,0,0,0,0,0,0,0],"sum_hessian":[3.7713884E3,2.3746658E2,3.5339219E3,5.0213444E1,1.8725314E2,3.1144685E3,4.1945325E2,2.6759773E1,2.3453672E1,1.734563E2,1.37968445E1,2.7302363E3,3.8423227E2,2.3643831E2,1.8301495E2,5.959414E0,2.080036E1,1.6897135E1,6.556538E0,7.6526726E1,9.692958E1,3.9104345E0,9.88641E0,6.229926E2,2.1072437E3,6.268139E1,3.2155087E2,7.039387E1,1.6604445E2,8.892663E0,1.7412228E2],"tree_param":{"num_deleted":"0","num_feature":"768","num_nodes":"31","size_leaf_vector":"1"}},{"base_weights":[-2.115561E-3,-4.2531294E-1,4.0725786E-3,-2.0137072E-1,-1.1135855E0,-1.7556239E-2,1.5322544E-1,-6.8188024E-1,1.4369579E-1,-1.25274E0,2.1035094E-2,-7.0105605E-2,7.219669E-2,6.3980764E-1,1.0684774E-1,-1.0199495E-1,6.4405285E-2,6.6504866E-2,-3.6901638E-2,-1.382539E-1,-1.8334301E-2,-5.657188E-3,-4.8984256E-2,-3.0118514E-2,9.447524E-3,1.0433985E-1,7.0212907E-3,-6.400148E-2,1.3682692E-2],"categories":[],"categories_nodes":[],"categories_segments":[],"categories_sizes":[],"default_left":[0,0,0,0,0,0,0,0,0,0,0,0,0,0,0,0,0,0,0,0,0,0,0,0,0,0,0,0,0],"id":38,"left_children":[1,3,5,7,9,11,13,15,17,19,-1,21,23,25,27,-1,-1,-1,-1,-1,-1,-1,-1,-1,-1,-1,-1,-1,-1],"loss_changes":[9.858582E0,8.137947E0,1.1973151E1,7.0876102E0,2.6765785E0,1.5293855E1,1.0538782E1,8.633017E0,7.0246177E0,1.411644E0,0E0,1.1589348E1,9.990108E0,9.2834015E0,9.722942E0,0E0,0E0,0E0,0E0,0E0,0E0,0E0,0E0,0E0,0E0,0E0,0E0,0E0,0E0],"parents":[2147483647,0,0,1,1,2,2,3,3,4,4,5,5,6,6,7,7,8,8,9,9,11,11,12,12,13,13,14,14],"right_children":[2,4,6,8,10,12,14,16,18,20,-1,22,24,26,28,-1,-1,-1,-1,-1,-1,-1,-1,-1,-1,-1,-1,-1,-1],"split_conditions":[-1.4396486E-1,-6.468501E-1,-1.0433183E0,-6.174506E-1,5.310709E-2,-6.480435E-2,1.7209624E-1,5.5380754E-2,1.9089991E-2,9.552744E-2,2.1035094E-2,3.4709844E-1,-1.7521702E-1,-4.928024E-3,-3.025961E-1,-1.0199495E-1,6.4405285E-2,6.6504866E-2,-3.6901638E-2,-1.382539E-1,-1.8334301E-2,-5.657188E-3,-4.8984256E-2,-3.0118514E-2,9.447524E-3,1.0433985E-1,7.0212907E-3,-6.400148E-2,1.3682692E-2],"split_indices":[115,73,265,611,187,681,690,607,397,137,0,296,638,108,586,0,0,0,0,0,0,0,0,0,0,0,0,0,0],"split_type":[0,0,0,0,0,0,0,0,0,0,0,0,0,0,0,0,0,0,0,0,0,0,0,0,0,0,0,0,0],"sum_hessian":[3.7628735E3,5.325299E1,3.7096206E3,4.1155018E1,1.2097973E1,3.2405825E3,4.690381E2,1.6793613E1,2.4361404E1,1.0995996E1,1.1019764E0,2.0440388E3,1.1965437E3,3.970181E1,4.2933627E2,1.35656E1,3.228012E0,1.1931602E1,1.2429803E1,9.5446825E0,1.4513137E0,1.9812902E3,6.274866E1,6.6669174E1,1.1298745E3,2.2750172E1,1.695164E1,1.5783285E1,4.1355298E2],"tree_param":{"num_deleted":"0","num_feature":"768","num_nodes":"29","size_leaf_vector":"1"}},{"base_weights":[-1.1255555E-3,4.1757897E-3,-7.1285313E-1,1.238409E-1,-1.8427523E-2,-9.408042E-1,6.603449E-1,8.954178E-2,7.058726E-1,-2.2218151E-2,1.0640905E0,-1.0996819E0,1.09409414E-1,1.1397137E-1,-4.4905026E-2,-1.1571703E-2,1.8834585E-2,-4.281701E-4,1.18376926E-1,-7.8160524E-2,-1.7484103E-3,-5.495841E-2,1.3176237E-1,7.600941E-2,-1.2409183E-1],"categories":[],"categories_nodes":[],"categories_segments":[],"categories_sizes":[],"default_left":[0,0,0,0,0,0,0,0,0,0,0,0,0,0,0,0,0,0,0,0,0,0,0,0,0],"id":39,"left_children":[1,3,5,7,9,11,13,15,17,19,21,23,-1,-1,-1,-1,-1,-1,-1,-1,-1,-1,-1,-1,-1],"loss_changes":[1.4111816E1,1.0044383E1,9.277052E0,1.1714847E1,1.2841373E1,9.003731E0,2.9178913E0,1.1344365E1,1.1098698E1,1.11801815E1,5.191882E0,6.9528923E0,0E0,0E0,0E0,0E0,0E0,0E0,0E0,0E0,0E0,0E0,0E0,0E0,0E0],"parents":[2147483647,0,0,1,1,2,2,3,3,4,4,5,5,6,6,7,7,8,8,9,9,10,10,11,11],"right_children":[2,4,6,8,10,12,14,16,18,20,22,24,-1,-1,-1,-1,-1,-1,-1,-1,-1,-1,-1,-1,-1],"split_conditions":[3.7625727E-1,-1.6664219E-1,1.6251619E-1,-7.2889864E-2,3.9233804E-2,3.106639E-1,1.9330569E-1,1.9178705E-1,-1.1892319E-1,7.1922225E-1,1.4012055E-1,6.951569E-1,1.09409414E-1,1.1397137E-1,-4.4905026E-2,-1.1571703E-2,1.8834585E-2,-4.281701E-4,1.18376926E-1,-7.8160524E-2,-1.7484103E-3,-5.495841E-2,1.3176237E-1,7.600941E-2,-1.2409183E-1],"split_indices":[185,109,10,643,141,708,554,673,236,322,38,587,0,0,0,0,0,0,0,0,0,0,0,0,0],"split_type":[0,0,0,0,0,0,0,0,0,0,0,0,0,0,0,0,0,0,0,0,0,0,0,0,0],"sum_hessian":[3.7383098E3,3.7116575E3,2.6652369E1,5.8898883E2,3.1226687E3,2.3127998E1,3.5243702E0,5.5730096E2,3.1687899E1,3.1127483E3,9.920361E0,2.1879328E1,1.248671E0,2.4418988E0,1.0824713E0,1.810372E2,3.7626373E2,1.3145188E1,1.8542711E1,1.8268082E1,3.0944802E3,1.1884536E0,8.731908E0,1.2350258E0,2.06443E1],"tree_param":{"num_deleted":"0","num_feature":"768","num_nodes":"25","size_leaf_vector":"1"}},{"base_weights":[1.045214E-2,9.407068E-2,-2.754342E-2,7.514523E-1,7.1733445E-2,-8.085665E-2,7.523062E-2,1.3678486E-2,1.2462516E0,5.181411E-2,7.251914E-1,7.111412E-2,-1.4475398E-1,3.192246E-2,4.1648012E-1,7.285671E-2,-6.654016E-2,2.244984E-3,1.4940226E-1,-7.1077265E-2,7.040215E-3,-7.939309E-2,9.965377E-2,1.9432968E-2,-2.3172984E-2,-6.659788E-2,-1.1863911E-2,4.509704E-3,-1.03532515E-1,1.3830338E-1,2.552161E-2],"categories":[],"categories_nodes":[],"categories_segments":[],"categories_sizes":[],"default_left":[0,0,0,0,0,0,0,0,0,0,0,0,0,0,0,0,0,0,0,0,0,0,0,0,0,0,0,0,0,0,0],"id":40,"left_children":[1,3,5,7,9,11,13,15,17,19,21,23,25,27,29,-1,-1,-1,-1,-1,-1,-1,-1,-1,-1,-1,-1,-1,-1,-1,-1],"loss_changes":[1.1960794E1,1.7216803E1,1.4190039E1,1.4054056E1,1.4783018E1,1.6566486E1,1.3061731E1,8.487572E0,6.9590607E0,1.5727596E1,1.4643192E1,1.8902046E1,1.6263596E1,1.1100503E1,1.5164131E1,0E0,0E0,0E0,0E0,0E0,0E0,0E0,0E0,0E0,0E0,0E0,0E0,0E0,0E0,0E0,0E0],"parents":[2147483647,0,0,1,1,2,2,3,3,4,4,5,5,6,6,7,7,8,8,9,9,10,10,11,11,12,12,13,13,14,14],"right_children":[2,4,6,8,10,12,14,16,18,20,22,24,26,28,30,-1,-1,-1,-1,-1,-1,-1,-1,-1,-1,-1,-1,-1,-1,-1,-1],"split_conditions":[-1.1247534E-1,-1.4198601E-1,-1.2495879E-1,-1.6433788E-2,-9.015352E-2,-3.0551443E-1,-4.9225397E-2,4.5184577E-3,-2.1102163E-1,-6.6522455E-1,-1.9052175E-1,2.4552974E-1,-2.8898984E-1,1.7205075E0,-1.075442E-2,7.285671E-2,-6.654016E-2,2.244984E-3,1.4940226E-1,-7.1077265E-2,7.040215E-3,-7.939309E-2,9.965377E-2,1.9432968E-2,-2.3172984E-2,-6.659788E-2,-1.1863911E-2,4.509704E-3,-1.03532515E-1,1.3830338E-1,2.552161E-2],"split_indices":[678,414,267,597,365,314,620,571,309,149,737,129,141,590,262,0,0,0,0,0,0,0,0,0,0,0,0,0,0,0,0],"split_type":[0,0,0,0,0,0,0,0,0,0,0,0,0,0,0,0,0,0,0,0,0,0,0,0,0,0,0,0,0,0,0],"sum_hessian":[3.7628342E3,1.1751509E3,2.5876833E3,3.754568E1,1.1376052E3,1.7039736E3,8.837097E2,1.5484723E1,2.2060959E1,1.1050009E3,3.2604404E1,5.0434564E2,1.1996279E3,7.851584E2,9.855134E1,7.5079737E0,7.9767494E0,3.8980644E0,1.8162895E1,2.5407396E1,1.0795934E3,4.649341E0,2.7955061E1,3.5874463E2,1.4560104E2,5.6068035E1,1.1435599E3,7.765303E2,8.628094E0,1.3008321E1,8.5543015E1],"tree_param":{"num_deleted":"0","num_feature":"768","num_nodes":"31","size_leaf_vector":"1"}},{"base_weights":[-3.8687056E-3,-6.1315733E-1,1.0795157E-3,-1.0796804E0,-1.1016002E-1,-2.442846E-3,8.9975345E-1,1.1125185E-1,-1.346191E0,1.22876346E-1,-5.12487E-1,2.4496164E-2,-1.321971E-1,1.2461809E0,-9.493838E-2,-1.5752213E-1,-3.288734E-2,-1.3613246E-1,9.90883E-3,-1.3034045E-3,1.3819478E-2,2.3528966E-3,-2.699779E-2,-3.9881468E-2,1.4933158E-1],"categories":[],"categories_nodes":[],"categories_segments":[],"categories_sizes":[],"default_left":[0,0,0,0,0,0,0,0,0,0,0,0,0,0,0,0,0,0,0,0,0,0,0,0,0],"id":41,"left_children":[1,3,5,7,9,11,13,-1,15,-1,17,19,21,23,-1,-1,-1,-1,-1,-1,-1,-1,-1,-1,-1],"loss_changes":[1.1373224E1,7.0122757E0,1.1849661E1,1.0642719E1,9.106886E0,1.3038198E1,1.0545437E1,0E0,2.8391075E0,0E0,6.7830377E0,1.3182322E1,1.3765571E1,5.775427E0,0E0,0E0,0E0,0E0,0E0,0E0,0E0,0E0,0E0,0E0,0E0],"parents":[2147483647,0,0,1,1,2,2,3,3,4,4,5,5,6,6,8,8,10,10,11,11,12,12,13,13],"right_children":[2,4,6,8,10,12,14,-1,16,-1,18,20,22,24,-1,-1,-1,-1,-1,-1,-1,-1,-1,-1,-1],"split_conditions":[1.0469161E0,1.0475851E-1,4.2095402E-1,-1.6921379E-1,7.405942E-2,-5.6869026E-2,4.1137796E-2,1.1125185E-1,-5.323087E-2,1.22876346E-1,-2.8758594E-1,2.528888E-1,-1.4043735E-1,-2.4546091E-1,-9.493838E-2,-1.5752213E-1,-3.288734E-2,-1.3613246E-1,9.90883E-3,-1.3034045E-3,1.3819478E-2,2.3528966E-3,-2.699779E-2,-3.9881468E-2,1.4933158E-1],"split_indices":[542,39,393,35,178,541,96,0,161,0,16,221,664,661,0,0,0,0,0,0,0,0,0,0,0],"split_type":[0,0,0,0,0,0,0,0,0,0,0,0,0,0,0,0,0,0,0,0,0,0,0,0,0],"sum_hessian":[3.7711257E3,2.9389568E1,3.741736E3,1.4652801E1,1.4736768E1,3.728121E3,1.3615127E1,1.2441965E0,1.3408605E1,2.9304013E0,1.1806367E1,3.087847E3,6.402741E2,1.17414875E1,1.8736398E0,1.0496994E1,2.9116106E0,4.430755E0,7.3756113E0,2.3222068E3,7.6564026E2,3.0095285E2,3.3932123E2,1.4534153E0,1.0288072E1],"tree_param":{"num_deleted":"0","num_feature":"768","num_nodes":"25","size_leaf_vector":"1"}},{"base_weights":[1.0733622E-3,-9.165533E-3,3.5448447E-1,1.2960142E-1,-3.3991136E-2,6.9405544E-1,-6.358327E-3,1.8934801E-1,-2.8745311E-1,-7.387908E-2,7.8432985E-2,9.6852475E-1,-9.849694E-2,-5.2773416E-1,4.507585E-1,4.1920945E-2,8.842687E-3,5.4012854E-2,-5.8549326E-2,-6.1790127E-2,-6.149148E-3,-1.0928067E-1,9.4627915E-3,-3.8900003E-2,1.0959367E-1,-9.9749856E-2,6.1272938E-2,3.7503418E-2,-8.750921E-2,-9.230496E-2,6.338136E-2],"categories":[],"categories_nodes":[],"categories_segments":[],"categories_sizes":[],"default_left":[0,0,0,0,0,0,0,0,0,0,0,0,0,0,0,0,0,0,0,0,0,0,0,0,0,0,0,0,0,0,0],"id":42,"left_children":[1,3,5,7,9,11,13,15,17,19,21,23,25,27,29,-1,-1,-1,-1,-1,-1,-1,-1,-1,-1,-1,-1,-1,-1,-1,-1],"loss_changes":[1.3566231E1,1.2556624E1,1.2938733E1,1.383731E1,1.3869191E1,1.1927252E1,1.2670935E1,1.1200666E1,1.7510235E1,1.5343395E1,1.5469412E1,7.43013E0,1.0137381E1,8.114925E0,7.7110577E0,0E0,0E0,0E0,0E0,0E0,0E0,0E0,0E0,0E0,0E0,0E0,0E0,0E0,0E0,0E0,0E0],"parents":[2147483647,0,0,1,1,2,2,3,3,4,4,5,5,6,6,7,7,8,8,9,9,10,10,11,11,12,12,13,13,14,14],"right_children":[2,4,6,8,10,12,14,16,18,20,22,24,26,28,30,-1,-1,-1,-1,-1,-1,-1,-1,-1,-1,-1,-1,-1,-1,-1,-1],"split_conditions":[-2.7259547E-2,-1.6664219E-1,-2.7680904E-1,7.490065E-2,9.959325E-1,-1.1448592E-1,2.9074088E-1,2.4005358E-1,-2.9355082E-1,-2.9533368E-1,6.237677E-2,-1.7940904E-1,2.6037323E-1,-7.7540524E-2,2.6370364E-1,4.1920945E-2,8.842687E-3,5.4012854E-2,-5.8549326E-2,-6.1790127E-2,-6.149148E-3,-1.0928067E-1,9.4627915E-3,-3.8900003E-2,1.0959367E-1,-9.9749856E-2,6.1272938E-2,3.7503418E-2,-8.750921E-2,-9.230496E-2,6.338136E-2],"split_indices":[505,109,671,480,534,20,370,720,614,505,631,217,601,600,421,0,0,0,0,0,0,0,0,0,0,0,0,0,0,0,0],"split_type":[0,0,0,0,0,0,0,0,0,0,0,0,0,0,0,0,0,0,0,0,0,0,0,0,0,0,0,0,0,0,0],"sum_hessian":[3.7471924E3,3.6426333E3,1.0455895E2,5.5213873E2,3.0904946E3,5.339149E1,5.1167465E1,4.8342938E2,6.8709366E1,2.2813997E3,8.0909503E2,3.949271E1,1.3898779E1,2.3831442E1,2.7336023E1,1.4653116E2,3.3689822E2,1.7977673E1,5.073169E1,4.970358E1,2.231696E3,1.01282425E1,7.9896674E2,3.212428E0,3.628028E1,5.9612083E0,7.93757E0,6.599625E0,1.7231817E1,2.738843E0,2.459718E1],"tree_param":{"num_deleted":"0","num_feature":"768","num_nodes":"31","size_leaf_vector":"1"}},{"base_weights":[2.3135317E-3,6.237305E-1,-2.4762738E-3,1.2755766E0,2.9869466E-3,1.3299524E-2,-2.2872429E-1,1.5490314E0,-6.469106E-2,6.5748465E-1,-1.1156768E0,2.413621E-2,-2.6522812E-1,-9.566645E-1,-1.526908E-1,1.7529465E-1,-1.8020011E-2,9.3955465E-2,-8.704343E-2,2.3362715E-2,-1.4960553E-1,5.887259E-4,2.0187471E-2,-6.256877E-2,-4.314605E-3,-1.3868324E-1,-1.6312292E-2,3.2104477E-2,-3.063934E-2],"categories":[],"categories_nodes":[],"categories_segments":[],"categories_sizes":[],"default_left":[0,0,0,0,0,0,0,0,0,0,0,0,0,0,0,0,0,0,0,0,0,0,0,0,0,0,0,0,0],"id":43,"left_children":[1,3,5,7,9,11,13,15,-1,17,19,21,23,25,27,-1,-1,-1,-1,-1,-1,-1,-1,-1,-1,-1,-1,-1,-1],"loss_changes":[1.118655E1,1.1628136E1,1.3316554E1,8.372553E0,1.2248431E1,1.0533913E1,1.3314034E1,4.7478027E0,0E0,5.36522E0,3.5192924E0,1.0891177E1,1.0436086E1,7.5598297E0,1.6218164E1,0E0,0E0,0E0,0E0,0E0,0E0,0E0,0E0,0E0,0E0,0E0,0E0,0E0,0E0],"parents":[2147483647,0,0,1,1,2,2,3,3,4,4,5,5,6,6,7,7,9,9,10,10,11,11,12,12,13,13,14,14],"right_children":[2,4,6,8,10,12,14,16,-1,18,20,22,24,26,28,-1,-1,-1,-1,-1,-1,-1,-1,-1,-1,-1,-1,-1,-1],"split_conditions":[-4.6292394E-1,1.1607443E0,8.2637745E-1,1.343053E-2,-2.8873703E-1,2.833257E-1,-4.3955747E-2,2.6596454E-1,-6.469106E-2,3.4001356E-1,7.266328E-1,3.2869613E-1,-1.3352599E0,8.460401E-2,5.1576203E-1,1.7529465E-1,-1.8020011E-2,9.3955465E-2,-8.704343E-2,2.3362715E-2,-1.4960553E-1,5.887259E-4,2.0187471E-2,-6.256877E-2,-4.314605E-3,-1.3868324E-1,-1.6312292E-2,3.2104477E-2,-3.063934E-2],"split_indices":[424,709,639,50,396,647,196,515,0,635,290,249,239,464,163,0,0,0,0,0,0,0,0,0,0,0,0,0,0],"split_type":[0,0,0,0,0,0,0,0,0,0,0,0,0,0,0,0,0,0,0,0,0,0,0,0,0,0,0,0,0],"sum_hessian":[3.7568132E3,2.7747168E1,3.7290662E3,1.3019941E1,1.4727227E1,3.4868748E3,2.4219122E2,1.1568669E1,1.451272E0,9.551298E0,5.175929E0,3.3571707E3,1.2970421E2,2.1809189E1,2.2038203E2,1.0336097E1,1.2325718E0,8.387882E0,1.1634164E0,1.2230937E0,3.952835E0,3.045512E3,3.116588E2,4.8754246E1,8.094997E1,1.3657823E1,8.151365E0,5.371995E1,1.6666208E2],"tree_param":{"num_deleted":"0","num_feature":"768","num_nodes":"29","size_leaf_vector":"1"}},{"base_weights":[-6.9787162E-3,-2.30456E-3,-6.3322604E-1,1.0018098E0,-5.085801E-3,4.6281427E-1,-9.548282E-1,1.198399E-1,-3.515314E-2,1.3304268E-1,-2.4057891E-2,-5.5028886E-1,1.2931798E-1,6.530329E-2,-1.1248641E0,1.623475E-2,-1.05878666E-1,-3.3171423E-4,-1.8407082E-2,-1.050485E-1,2.9708028E-2,5.6163408E-2,-1.3135336E-1],"categories":[],"categories_nodes":[],"categories_segments":[],"categories_sizes":[],"default_left":[0,0,0,0,0,0,0,0,0,0,0,0,0,0,0,0,0,0,0,0,0,0,0],"id":44,"left_children":[1,3,5,7,9,11,13,-1,-1,15,17,19,-1,-1,21,-1,-1,-1,-1,-1,-1,-1,-1],"loss_changes":[1.1022402E1,1.0447332E1,1.0275251E1,3.1704645E0,9.77748E0,6.6021414E0,6.7204685E0,0E0,0E0,1.5908979E1,1.0885769E1,1.9462394E0,0E0,0E0,7.1550217E0,0E0,0E0,0E0,0E0,0E0,0E0,0E0,0E0],"parents":[2147483647,0,0,1,1,2,2,3,3,4,4,5,5,6,6,9,9,10,10,11,11,14,14],"right_children":[2,4,6,8,10,12,14,-1,-1,16,18,20,-1,-1,22,-1,-1,-1,-1,-1,-1,-1,-1],"split_conditions":[5.258412E-1,2.84004E-1,-3.4865436E-1,2.8114805E-1,1.3149734E-1,7.146414E-1,-2.84982E-1,1.198399E-1,-3.515314E-2,6.4339824E-2,-7.859772E-2,6.0566115E-1,1.2931798E-1,6.530329E-2,-3.8992786E-1,1.623475E-2,-1.05878666E-1,-3.3171423E-4,-1.8407082E-2,-1.050485E-1,2.9708028E-2,5.6163408E-2,-1.3135336E-1],"split_indices":[104,454,98,83,649,610,381,0,0,742,235,14,0,0,218,0,0,0,0,0,0,0,0],"split_type":[0,0,0,0,0,0,0,0,0,0,0,0,0,0,0,0,0,0,0,0,0,0,0],"sum_hessian":[3.765037E3,3.7381401E3,2.6896883E1,9.333281E0,3.728807E3,6.0021367E0,2.0894747E1,8.249439E0,1.0838411E0,4.4957947E2,3.2792275E3,2.8555105E0,3.1466265E0,1.7266808E0,1.9168066E1,4.3963348E2,9.945965E0,2.903853E3,3.7537442E2,1.6448596E0,1.2106509E0,1.7296944E0,1.7438372E1],"tree_param":{"num_deleted":"0","num_feature":"768","num_nodes":"23","size_leaf_vector":"1"}},{"base_weights":[-1.5438236E-3,-4.0229455E-2,7.834076E-2,3.8069004E-1,-5.360062E-2,-8.3627677E-1,9.1921374E-2,1.136349E-1,1.115233E0,-2.6807645E-1,-2.7978353E-2,5.413085E-1,-1.3125106E0,3.454406E-2,2.8776717E-1,-2.369233E-2,7.065659E-2,-3.5896737E-2,1.39954E-1,-4.627442E-2,1.1918996E-2,-1.6581807E-3,-4.941235E-2,1.2795459E-1,-6.888856E-2,-1.4866999E-1,2.551404E-2,9.209494E-3,-2.3671627E-2,1.4800754E-2,7.088495E-2],"categories":[],"categories_nodes":[],"categories_segments":[],"categories_sizes":[],"default_left":[0,0,0,0,0,0,0,0,0,0,0,0,0,0,0,0,0,0,0,0,0,0,0,0,0,0,0,0,0,0,0],"id":45,"left_children":[1,3,5,7,9,11,13,15,17,19,21,23,25,27,29,-1,-1,-1,-1,-1,-1,-1,-1,-1,-1,-1,-1,-1,-1,-1,-1],"loss_changes":[1.1600069E1,1.4253492E1,1.5288764E1,1.517095E1,1.346662E1,1.2530964E1,1.3560745E1,1.2286474E1,9.169668E0,1.9772293E1,1.1633337E1,5.728032E0,4.1151543E0,1.4620847E1,1.5991022E1,0E0,0E0,0E0,0E0,0E0,0E0,0E0,0E0,0E0,0E0,0E0,0E0,0E0,0E0,0E0,0E0],"parents":[2147483647,0,0,1,1,2,2,3,3,4,4,5,5,6,6,7,7,8,8,9,9,10,10,11,11,12,12,13,13,14,14],"right_children":[2,4,6,8,10,12,14,16,18,20,22,24,26,28,30,-1,-1,-1,-1,-1,-1,-1,-1,-1,-1,-1,-1,-1,-1,-1,-1],"split_conditions":[-2.571044E-1,2.028889E-1,-1.891796E0,-2.3044802E-1,-1.9374067E-1,-2.4289933E-1,2.2856231E-1,3.326538E-1,-1.6540924E-1,4.0052646E-1,2.1328616E0,3.408721E-1,-2.8724277E-1,1.3535954E-2,2.4547622E-1,-2.369233E-2,7.065659E-2,-3.5896737E-2,1.39954E-1,-4.627442E-2,1.1918996E-2,-1.6581807E-3,-4.941235E-2,1.2795459E-1,-6.888856E-2,-1.4866999E-1,2.551404E-2,9.209494E-3,-2.3671627E-2,1.4800754E-2,7.088495E-2],"split_indices":[5,416,749,424,367,548,714,666,742,478,479,134,287,540,677,0,0,0,0,0,0,0,0,0,0,0,0,0,0,0,0],"split_type":[0,0,0,0,0,0,0,0,0,0,0,0,0,0,0,0,0,0,0,0,0,0,0,0,0,0,0,0,0,0,0],"sum_hessian":[3.7515796E3,2.5278948E3,1.2236848E3,7.6984344E1,2.4509104E3,1.7017591E1,1.2066672E3,5.7304905E1,1.967944E1,2.6054114E2,2.1903694E3,4.336603E0,1.2680987E1,9.3416077E2,2.7250644E2,3.639031E1,2.0914598E1,3.13922E0,1.6540218E1,1.732556E2,8.728554E1,2.139107E3,5.1262375E1,2.6851387E0,1.6514643E0,1.1459326E1,1.221662E0,7.712022E2,1.6295857E2,2.056136E2,6.689285E1],"tree_param":{"num_deleted":"0","num_feature":"768","num_nodes":"31","size_leaf_vector":"1"}},{"base_weights":[-1.894823E-3,-8.5331327E-1,1.3479315E-3,-1.1292487E0,3.173966E-1,1.5804908E-1,-1.6163146E-2,-1.3702662E0,3.2805815E-2,-2.416176E-2,7.363529E-2,1.2240394E0,1.2879722E-1,-3.545848E-2,1.6919981E-1,-1.698561E-1,1.20323755E-4,1.4086427E-1,-1.205806E-2,-4.2473283E-2,2.0577198E-2,3.546814E-2,-4.349528E-3,2.3783669E-2,-4.214598E-2],"categories":[],"categories_nodes":[],"categories_segments":[],"categories_sizes":[],"default_left":[0,0,0,0,0,0,0,0,0,0,0,0,0,0,0,0,0,0,0,0,0,0,0,0,0],"id":46,"left_children":[1,3,5,7,9,11,13,15,-1,-1,-1,17,19,21,23,-1,-1,-1,-1,-1,-1,-1,-1,-1,-1],"loss_changes":[1.0345615E1,4.9512024E0,1.02473E1,4.567748E0,9.9585414E-1,1.154716E1,1.2020403E1,4.6189365E0,0E0,0E0,0E0,2.6291761E0,1.5701493E1,9.557482E0,1.2946663E1,0E0,0E0,0E0,0E0,0E0,0E0,0E0,0E0,0E0,0E0],"parents":[2147483647,0,0,1,1,2,2,3,3,4,4,5,5,6,6,7,7,11,11,12,12,13,13,14,14],"right_children":[2,4,6,8,10,12,14,16,-1,-1,-1,18,20,22,24,-1,-1,-1,-1,-1,-1,-1,-1,-1,-1],"split_conditions":[-2.3733437E-1,-1.5032312E-1,-3.9651772E-1,1.1203283E-1,-1.342721E0,1.8418759E-1,3.076274E-1,1.7238517E-1,3.2805815E-2,-2.416176E-2,7.363529E-2,1.4097238E0,-7.2436474E-2,-6.187561E-1,3.116752E-1,-1.698561E-1,1.20323755E-4,1.4086427E-1,-1.205806E-2,-4.2473283E-2,2.0577198E-2,3.546814E-2,-4.349528E-3,2.3783669E-2,-4.214598E-2],"split_indices":[719,314,61,346,380,528,739,660,0,0,0,209,426,153,296,0,0,0,0,0,0,0,0,0,0],"split_type":[0,0,0,0,0,0,0,0,0,0,0,0,0,0,0,0,0,0,0,0,0,0,0,0,0],"sum_hessian":[3.745717E3,1.3217366E1,3.7324998E3,1.0724925E1,2.4924414E0,3.7436844E2,3.3581313E3,9.254149E0,1.4707756E0,1.2490791E0,1.2433623E0,8.907788E0,3.6546063E2,3.0422566E3,3.1587463E2,7.2743573E0,1.9797925E0,7.7906003E0,1.1171874E0,4.4065456E1,3.2139517E2,6.0534336E1,2.9817224E3,2.8352524E2,3.2349373E1],"tree_param":{"num_deleted":"0","num_feature":"768","num_nodes":"25","size_leaf_vector":"1"}},{"base_weights":[4.519344E-3,-8.636178E-3,2.1190222E-1,7.138633E-2,-4.8590105E-2,-5.1373565E-1,2.6905796E-1,4.0143467E-2,4.2356804E-1,1.0213939E-1,-8.257771E-2,1.6440682E-1,-1.276358E0,2.1087001E-1,1.0584946E0,2.5640845E-2,-1.2066978E-3,-9.049109E-3,6.934857E-2,5.0935405E-3,7.295375E-2,-1.7050967E-2,-4.7389884E-4,1.07274055E-1,-8.395558E-2,1.838359E-2,-1.5631315E-1,9.3496464E-2,1.37283495E-2,1.3333839E-1,-7.591547E-2],"categories":[],"categories_nodes":[],"categories_segments":[],"categories_sizes":[],"default_left":[0,0,0,0,0,0,0,0,0,0,0,0,0,0,0,0,0,0,0,0,0,0,0,0,0,0,0,0,0,0,0],"id":47,"left_children":[1,3,5,7,9,11,13,15,17,19,21,23,25,27,29,-1,-1,-1,-1,-1,-1,-1,-1,-1,-1,-1,-1,-1,-1,-1,-1],"loss_changes":[1.0256063E1,1.1306647E1,9.438628E0,1.2941638E1,1.2091402E1,8.855291E0,9.355656E0,1.2229972E1,1.3363718E1,1.3918886E1,1.31760845E1,9.777808E0,3.629984E0,1.0286531E1,8.040498E0,0E0,0E0,0E0,0E0,0E0,0E0,0E0,0E0,0E0,0E0,0E0,0E0,0E0,0E0,0E0,0E0],"parents":[2147483647,0,0,1,1,2,2,3,3,4,4,5,5,6,6,7,7,8,8,9,9,10,10,11,11,12,12,13,13,14,14],"right_children":[2,4,6,8,10,12,14,16,18,20,22,24,26,28,30,-1,-1,-1,-1,-1,-1,-1,-1,-1,-1,-1,-1,-1,-1,-1,-1],"split_conditions":[1.0467063E-2,-1.0947528E-1,5.120281E-1,9.127655E-2,-2.243658E-1,7.16369E-3,6.7280926E-2,4.2663638E-2,1.1147394E-1,-1.4522712E-1,2.2602764E-1,-3.7519333E-1,-5.6402076E-2,-1.924344E-1,-1.4230385E-1,2.5640845E-2,-1.2066978E-3,-9.049109E-3,6.934857E-2,5.0935405E-3,7.295375E-2,-1.7050967E-2,-4.7389884E-4,1.07274055E-1,-8.395558E-2,1.838359E-2,-1.5631315E-1,9.3496464E-2,1.37283495E-2,1.3333839E-1,-7.591547E-2],"split_indices":[543,678,602,227,21,600,762,728,660,616,631,157,668,476,461,0,0,0,0,0,0,0,0,0,0,0,0,0,0,0,0],"split_type":[0,0,0,0,0,0,0,0,0,0,0,0,0,0,0,0,0,0,0,0,0,0,0,0,0,0,0,0,0,0,0],"sum_hessian":[3.7575667E3,3.534322E3,2.232446E2,1.1767195E3,2.3576025E3,1.5716951E1,2.0752765E2,1.0818593E3,9.4860275E1,4.334256E2,1.9241769E3,8.7344675E0,6.982484E0,1.9446136E2,1.3066283E1,2.096287E2,8.722305E2,3.288859E1,6.1971684E1,4.01721E2,3.1704565E1,9.0295105E2,1.0212259E3,4.549661E0,4.1848063E0,1.2051331E0,5.7773504E0,1.6859314E1,1.7760205E2,1.1581236E1,1.4850464E0],"tree_param":{"num_deleted":"0","num_feature":"768","num_nodes":"31","size_leaf_vector":"1"}},{"base_weights":[-5.2555706E-3,1.1963234E-2,-1.6013108E-1,3.4966275E-2,-1.170019E-1,1.460661E-1,-3.3629337E-1,4.4908054E-2,-3.4713995E-1,2.4005648E-2,-3.0425656E-1,7.3184705E-1,-7.766133E-2,-2.0928289E-1,-8.2877547E-1,-4.197435E-2,5.290805E-3,1.3126618E-4,-9.059616E-2,7.000343E-2,-3.7273213E-3,1.3411953E-3,-4.71384E-2,-1.2605458E-2,1.2553294E-1,-2.3357114E-2,7.741354E-2,2.7809385E-2,-3.1225855E-2,-1.04005754E-1,6.59247E-2],"categories":[],"categories_nodes":[],"categories_segments":[],"categories_sizes":[],"default_left":[0,0,0,0,0,0,0,0,0,0,0,0,0,0,0,0,0,0,0,0,0,0,0,0,0,0,0,0,0,0,0],"id":48,"left_children":[1,3,5,7,9,11,13,15,17,19,21,23,25,27,29,-1,-1,-1,-1,-1,-1,-1,-1,-1,-1,-1,-1,-1,-1,-1,-1],"loss_changes":[9.961434E0,9.977568E0,2.0208815E1,1.0856704E1,1.3450201E1,1.8036396E1,1.4685368E1,1.03647175E1,1.4115328E1,1.20955925E1,1.1620981E1,1.7229261E1,1.3484898E1,9.631786E0,1.5891361E1,0E0,0E0,0E0,0E0,0E0,0E0,0E0,0E0,0E0,0E0,0E0,0E0,0E0,0E0,0E0,0E0],"parents":[2147483647,0,0,1,1,2,2,3,3,4,4,5,5,6,6,7,7,8,8,9,9,10,10,11,11,12,12,13,13,14,14],"right_children":[2,4,6,8,10,12,14,16,18,20,22,24,26,28,30,-1,-1,-1,-1,-1,-1,-1,-1,-1,-1,-1,-1,-1,-1,-1,-1],"split_conditions":[1.0632832E-1,9.301941E-2,5.583219E-1,2.709258E-1,2.6676646E-1,-1.3867155E-1,-1.2772828E-1,-3.8608882E-1,2.6334593E-1,6.8115157E-1,-5.2788354E-2,-1.14647016E-1,5.418596E-1,2.1448676E-1,8.1904185E-1,